{"data":{"bias 2":[[0.049777627,-0.024213726,-0.03251222]],"weight_2":[[0.26121706,0.586159,0.70123655],[0.7169542,0.56771356,0.96560043],[0.35861444,0.5711766,0.75417686],[0.4350646,1.0654464,0.7828644],[0.31924912,-0.009197612,0.8817043],[0.753186,0.36122024,0.31630424],[0.27822864,0.83777684,0.9454174],[0.09561402,0.6945487,0.6287094],[0.5913731,0.015565234,0.2767934],[0.50905085,0.997745,0.6070259],[0.0060259183,1.1049203,0.5479046],[0.4398652,0.15533195,0.12889926],[0.1826097,0.9165967,0.67005086],[0.77862805,0.43354535,0.69531506],[0.93196,0.124350585,0.6515324],[0.19447978,0.09745539,0.537155],[0.5446464,0.16023041,0.8135765],[0.041149866,0.9760332,0.15831822],[0.7721918,0.650451,0.5077854],[0.21495003,0.5289945,0.8509609],[0.110848226,0.23225033,0.25859264],[0.18807329,0.36841875,0.8261132],[0.07241643,1.1414899,0.83270293],[0.40954188,0.75039583,0.76033324],[0.71975553,0.011260153,0.6090853],[0.6758861,0.056248117,0.68295133],[0.528912,0.9243777,0.8099007],[0.8044346,0.0036232318,0.17651945],[0.7422151,0.7277115,0.8448128],[0.59950227,0.1323527,0.15217169],[0.99921876,0.20785825,0.5044809],[0.25213975,0.02048933,0.22436795],[0.39272496,0.70477104,0.5275178],[0.5224799,0.3118004,0.029893544],[0.6095304,0.49452427,0.53160316],[0.39847755,-0.034957033,0.9780313],[0.25857213,0.94405484,0.6931629],[0.7869674,0.2946931,0.3309534],[0.82370126,0.23291403,0.20944776],[0.2125863,0.10355974,0.54963714],[-0.047664423,0.92905426,0.6064628],[0.4576781,0.6865157,0.46907526],[1.0114859,0.7640609,0.30935362],[0.90844136,0.44575593,0.19364707],[0.8690996,0.019846316,0.29618514],[1.1462494,0.8034476,-0.0038175487],[0.8340237,0.6186039,0.7516972],[0.26319256,0.07669124,0.2421053],[0.060413927,0.46630746,0.10391075],[0.46147227,0.72965294,0.711396],[-0.07463869,0.16650192,0.02083052],[1.0541209,0.8597127,0.06619564],[-0.068877995,1.0755492,0.86758083],[0.91087884,0.49603954,0.08700493],[0.14006703,0.038419493,0.00029151805],[0.8556326,0.7049457,0.37874997],[0.19108553,1.019566,0.6717589],[0.04191128,0.5234775,0.3230942],[0.8235236,0.7849654,0.1109832],[0.7194291,0.096186295,0.15397295],[0.78827345,0.23321137,0.2536729],[0.24564885,0.88884246,0.6205352],[0.02252261,0.1839081,0.47326806],[0.19341606,0.45067665,0.6376928]],"weight_0":[[-0.051129635,-0.13576068,0.020265207,-0.010167257,-0.058665056,-0.14596647,-0.08533876,0.034407213,-0.41705862,-0.8307457,0.16638106,-0.028681198,-0.76377034,0.0047253524,-0.7891803,-0.27885002,-0.7277402,0.06447365,-0.10855553,-0.4964529,-0.70175314,-0.0701227,-0.34620062,-0.4233563,-0.51422024,-0.25874057,-0.4099077,-0.69194734,-0.019053977,0.4617937,-0.35848722,-0.17637415,-0.3337081,-0.289923,-0.11897459,-0.8024954,-0.6699645,-0.73487234,-0.19384477,-0.055554375,0.020752132,-0.5711446,0.032531958,-0.40689582,-0.5568123,-0.7388636,-0.5617216,-0.5706329,-0.36988515,-0.8372724,0.071085505,-0.49339974,0.3276121,-0.36567962,-0.42783302,-0.1552953,-0.46193638,-0.26889783,-0.50264484,0.060866825,-0.6070924,-0.38924247,-0.46449956,-0.0127023645],[-0.28509888,-0.0038240305,-0.37349018,-0.77471274,-0.36816174,-0.71549124,-0.2074861,-0.725847,-0.5587899,-0.2649878,-0.1679204,-0.34324506,-0.693302,-0.30084932,0.0471894,-0.5483932,-0.30563486,0.26703265,0.08862118,-0.6221281,-0.65391815,-0.82126373,-0.3820192,-0.051840518,-0.44891006,-0.6921986,-0.819415,-0.58363855,-0.1605634,0.51960397,0.11234182,-0.30604145,-0.30468097,-0.057027854,-0.32701546,0.1424031,-0.81951714,-0.4412146,-0.40625206,-0.33182344,-0.16465391,-0.3703861,-0.26157933,-0.14976542,-0.031495653,-0.67199385,0.14268146,-0.3966049,-0.08695912,-0.8154117,-0.4522472,-0.260202,0.5243692,-0.683798,-0.4573361,0.030999888,-0.7707275,-0.6041024,-0.6228949,-0.73978645,-0.3821822,-0.63298184,-0.6328143,-0.6673779],[0.046461724,-0.68323886,-0.7295733,-0.772667,-0.26990497,-0.5813729,-0.28342447,0.13838051,-0.6524631,-0.22654901,-0.29186,-0.66810507,0.14123717,-0.6847999,-0.10880692,-0.18302897,-0.136988,0.164899,0.19780456,-0.8302648,-0.69168705,0.10080608,-0.1724214,-0.48103508,-0.74800473,-0.6560524,-0.19616494,-0.35579786,-0.32705355,-0.17238718,-0.5685068,-0.27342436,-0.2626855,0.11017784,-0.6419314,-0.53416127,-0.41168812,-0.7282921,-0.80027014,0.23792812,-0.80961275,-0.26575494,-0.34930992,-0.37694085,-0.27060902,0.08437513,-0.81903195,-0.1516527,-0.30126208,-0.7052457,-0.123925745,-0.20604448,-0.11055142,0.13984393,-0.37974495,-0.62939864,-0.4650279,-0.6656443,0.06638514,-0.6626,-0.35832042,-0.23606259,0.040653445,-0.056906387],[-0.3700102,-0.70574546,-0.07700953,-0.5029601,0.13563268,-0.5417012,-0.3031423,-0.424898,-0.52000386,0.040258534,-0.22997132,-0.8269424,-0.30304575,-0.53347164,-0.36458638,-0.10806372,0.13037361,-0.025758043,-0.36485872,-0.2793816,-0.16274446,-0.7856077,-0.15533982,-0.56246376,-0.4364786,0.11136999,-0.28921792,-0.033695053,0.15694077,-0.017299946,0.10109321,-0.21951088,-0.6062256,-0.6329975,-0.0992877,-0.8417607,-0.55573076,0.09460691,-0.42147344,0.21879788,-0.7300554,-0.7953767,-0.019606791,-0.8204441,-0.15483172,-0.28673637,-0.57668966,-0.52796835,0.09880626,-0.62885636,-0.43452334,0.14718139,0.43187195,-0.2932024,-0.47988006,-0.64782226,-0.3137601,-0.25062993,0.18160184,-0.02050617,-0.24274251,-0.6688345,-0.23897903,-0.059547905],[0.14381145,0.0889513,-0.19166516,-0.61278033,0.026981048,-0.3559085,-0.12725928,-0.57428557,-0.06843755,0.1368962,-0.33790684,-0.67996466,-0.6927528,-0.37419617,-0.5885519,0.10936478,-0.2577162,-0.058226112,-0.15450516,-0.7562896,-0.66271096,-0.40293652,0.19524583,-0.08135196,-0.6963741,-0.64643115,-0.087239765,-0.16374959,-0.6640383,0.42844048,-0.78097236,-0.29566476,-0.7599252,-0.75277215,-0.15411447,-0.50946033,-0.5098822,-0.48418662,-0.15762667,0.2616565,-0.7645354,0.057337627,-0.3474852,0.05830046,-0.25503728,-0.20437568,-0.29051155,-0.56395394,0.20271304,-0.79504716,-0.06495273,-0.39153433,-0.014735296,-0.6405247,-0.22201529,-0.7114146,-0.7910675,-0.7266705,0.107218534,-0.06522769,-0.4178912,-0.7467111,0.12808456,-0.64364296],[-0.17429258,-0.57264304,-0.120471835,-0.60815185,-0.67508936,-0.30560598,-0.0807779,-0.48676145,-0.5111647,-0.75297767,0.24397573,-0.66162103,-0.5128668,-0.57949775,-0.74959606,-0.53446573,-0.5991143,-0.3524478,-0.13190277,-0.45721582,-0.22826742,-0.5144171,0.15010153,-0.5972687,-0.41912955,0.07684667,-0.037222847,-0.46142858,-0.0790292,0.26526758,0.11776761,-0.19189772,-0.7060027,-0.7154729,-0.42985326,-0.119701035,-0.41246566,-0.74451643,-0.07339933,0.041625887,-0.5743581,-0.7648531,-0.6926786,-0.43644568,0.19991821,-0.61656743,-0.01325126,-0.007507473,0.18319105,-0.60721046,-0.4545595,-0.50713396,0.14716256,-0.15587103,-0.46766528,-0.11082213,-0.7432795,-0.19874835,-0.3229368,-0.34563014,-0.5864927,0.11437033,-0.39586765,-0.43925297],[-0.15577011,0.05766693,0.059727922,-0.609767,-0.52577627,0.016657853,0.0081924945,-0.46351263,-0.5631161,-0.30473667,-0.003029746,0.18524653,-0.15855426,0.10850004,0.06833836,-0.3306074,-0.60619545,0.06454545,-0.793814,0.0033163629,-0.44025344,-0.23225082,-0.5265194,-0.48323643,-0.15623656,-0.32921195,0.1935383,-0.36337855,-0.3758692,0.21895371,-0.60187006,-0.6709014,0.04951687,-0.26362976,-0.41482747,0.03078387,0.049935766,-0.11173151,-0.5609325,-0.60221595,-0.77473843,-0.6435834,0.082136706,-0.3111655,-0.6712518,-0.6674318,-0.6121827,-0.21409278,-0.69469017,-0.51826054,-0.117561825,-0.76530284,0.4218246,-0.07733744,0.058220327,-0.71603084,-0.3205694,-0.27371016,-0.49958065,0.1609841,0.036256667,-0.10300581,-0.04867574,-0.7579509],[-0.56647915,-0.5388298,-0.04559212,-0.11895843,0.04496141,-0.21435314,-0.4225385,0.084245935,-0.7780404,-0.3635307,-0.754615,-0.7890636,-0.29440582,-0.5793825,-0.20916581,0.14293693,-0.55664295,0.13191068,-0.26193637,-0.3867853,-0.25685403,-0.65673167,-0.5421584,-0.11207147,-0.6568722,0.06583664,-0.0022711242,-0.556949,-0.3555625,0.35263598,-0.6397722,-0.34967366,-0.16947679,-0.30912694,-0.3946257,-0.23131412,-0.3127781,-0.08706822,-0.6436845,0.029958528,-0.059599083,-0.39699858,-0.17636067,0.0020637289,-0.28893423,-0.4296245,-0.7390743,-0.81716835,-0.22784744,0.07140615,-0.5373151,-0.20963874,0.34618944,0.11590158,-0.24387826,-0.4783737,0.07125987,0.12991653,-0.5266112,0.05188991,-0.16489433,0.055825114,-0.18295935,-0.508221],[-0.6642045,-0.8267826,-0.13976368,0.15201706,-0.03646718,-0.68679595,-0.5256438,-0.2974839,-0.04724334,-0.6490252,-0.36406857,-0.30284762,0.057223246,-0.7468147,-0.45812824,-0.71469915,-0.3146012,-0.0383072,-0.10623215,-0.52622104,-0.28265718,-0.70703506,-0.46974483,-0.0015646657,-0.77133733,-0.41045833,-0.35660097,-0.63630396,-0.31766194,0.39206257,-0.6371733,-0.84288025,-0.6062679,-0.35495272,-0.46953776,0.120359086,-0.0465538,0.03893358,0.14032668,-0.6858269,0.10471654,-0.70305055,0.046373248,-0.065058365,-0.420723,-0.56304175,-0.6140847,-0.115472674,-0.5607374,-0.20179357,-0.6128722,0.05368029,-0.35983884,0.09603439,-0.06897188,-0.23162098,-0.8014389,0.094278604,-0.52455264,-0.83554256,-0.6281545,-0.41265193,-0.6821995,-0.045396112],[0.12448915,-0.14820573,-0.74115664,-0.17240347,-0.79389125,-0.7866674,-0.7653104,0.1300391,-0.2133538,-0.4598097,-0.47276354,0.15981919,-0.78732926,-0.34376046,-0.5825863,-0.49058932,-0.67180306,-0.4174201,-0.70440656,-0.446486,0.07670507,-0.6556331,-0.4097762,0.01017624,-0.64704835,-0.06966292,-0.78401047,-0.06528562,-0.5087359,-0.5121428,0.1400865,-0.25314215,-0.5542872,0.011215382,-0.74016005,0.14140016,-0.42830354,0.19169492,-0.14847459,-0.28496572,-0.2162176,-0.18063237,-0.54606426,-0.19955769,-0.534462,-0.18162863,-0.8413616,-0.47129536,0.08954312,-0.37348798,-0.6235682,-0.66824263,0.13094677,-0.7572331,-0.5908778,-0.0981612,-0.8317308,-0.32476935,-0.29832777,-0.41342098,-0.5995674,-0.7106583,0.039436832,-0.6021216],[-0.0050737294,-0.16109398,-0.7870281,-0.15674424,-0.29504618,-0.19290929,-0.50812703,0.25492907,-0.82119197,-0.7116205,-0.04070578,-0.17788148,-0.48978582,0.15340075,-0.8027485,-0.09412747,-0.45234236,0.27468365,-0.524733,-0.46300772,0.11292767,-0.25683793,0.026083317,-0.41510764,-0.6515311,-0.026348582,0.079133585,-0.29786557,-0.53342843,0.16282308,-0.118323,-0.08120757,-0.69924664,-0.33352834,0.087446906,-0.15293239,-0.49184346,-0.28439814,0.06002543,-0.06705198,-0.02460904,-0.17698081,0.009332058,0.14735255,-0.43686455,0.09739946,-0.2167153,0.14441854,-0.49540073,-0.6485021,-0.0050006863,-0.15640596,0.17329754,-0.7412708,-0.5578567,-0.47229645,-0.06962519,-0.30260077,-0.70107853,-0.8390481,-0.49470055,-0.22488078,-0.36505562,-0.58269936],[-0.15398586,-0.49561945,-0.46923777,-0.13479018,-0.62559223,-0.04088319,-0.41432172,0.01001402,0.04323505,-0.08634734,-0.72705555,-0.7183085,-0.39506167,-0.11174303,-0.7142718,-0.5133793,-0.71172833,-0.29942313,-0.5372558,-0.22952795,-0.24496941,-0.74401677,0.018547297,-0.79706043,-0.7422826,-0.8107136,-0.4358618,-0.4142361,-0.36701506,0.14813511,-0.3563229,-0.36277977,-0.22300535,-0.4638572,-0.5896952,0.20056635,-0.09615946,-0.49417695,0.037472073,-0.6496791,-0.34422716,0.049305927,-0.374946,-0.25485897,0.08704135,-0.27554673,-0.7373095,-0.82704926,-0.3065309,-0.2974414,-0.048668317,-0.05961536,-0.0860734,0.14455803,-0.4362712,-0.22586882,0.057448264,-0.28040287,-0.13380916,-0.56031907,-0.4732351,-0.4029735,-0.08821619,-0.741095]],"bias 0":[[-0.7204385,-0.8172225,-0.8280922,-0.82178587,-0.8167235,-0.7104639,-0.6950148,-0.79234093,-0.8396873,-0.833902,-0.7344737,-0.80914444,-0.84420663,-0.8383349,-0.8244134,-0.6824267,-0.79326534,-0.58239996,-0.74496067,-0.8495916,-0.7329596,-0.8333317,-0.7480328,-0.8280171,-0.84095514,-0.83520603,-0.76249117,-0.83094525,-0.68218786,-0.5364854,-0.825047,-0.81226003,-0.843161,-0.79571587,-0.79142153,-0.7721537,-0.82540524,-0.7709162,-0.7157139,-0.74280995,-0.7541743,-0.8265993,-0.757672,-0.7633641,-0.72970766,-0.84114045,-0.80620444,-0.8446661,-0.7439216,-0.8105712,-0.83038616,-0.81302017,-0.4800882,-0.7266215,-0.75291574,-0.8384265,-0.8291877,-0.6921129,-0.7107664,-0.82206476,-0.83982867,-0.8365998,-0.7096884,-0.7965066]],"bias 1":[[-0.6356762,-0.5153961,-0.62383115,-0.6170259,-0.55657214,-0.5686893,-0.6330099,-0.62940097,-0.57313234,-0.60378253,-0.6172041,-0.5703098,-0.618117,-0.55019045,-0.55134845,-0.5508815,-0.54337895,-0.6012991,-0.56393147,-0.6345941,-0.52780074,-0.6210037,-0.62100464,-0.63504225,-0.53786445,-0.54372877,-0.624453,-0.5705656,-0.47652888,-0.57172835,-0.56622905,-0.5370659,-0.6012854,-0.56036454,-0.5548931,-0.54827297,-0.6178993,-0.5696517,-0.5662039,-0.5465328,-0.6195082,-0.5969963,-0.5496578,-0.5658928,-0.57179874,-0.55291456,-0.56085235,-0.5311584,-0.599967,-0.6131612,-0.6093691,-0.54372346,-0.61946845,-0.567131,-0.5669421,-0.5643135,-0.61823076,-0.61354023,-0.59446746,-0.56826866,-0.57321167,-0.617526,-0.6123252,-0.63476884]],"weight_1":[[0.13039589,-0.2561388,-0.17770937,-0.3070331,-0.024346307,-0.013125793,-0.5790577,-0.19640628,0.2675921,-0.268574,0.09131855,0.20372204,-0.262555,0.47870597,-0.46467832,0.06831025,0.13465434,-0.2198841,-0.38846013,-0.38443857,-0.4814519,-0.36468303,-0.3294728,-0.52411693,0.36748648,0.4699725,-0.008218191,-0.2054432,-0.23781674,0.11112541,0.044132702,0.4939566,0.16475822,-0.10716492,-0.19211084,0.4682594,-0.26122048,0.092872605,-0.22492698,-0.39226288,-0.43313956,0.37398875,0.4509234,-0.2301215,-0.15754823,0.30576196,-0.293621,0.42514005,-0.033032645,0.30969295,-0.43894765,0.29941085,-0.15801942,0.26264378,0.20414467,-0.22461092,0.32241693,-0.4180955,0.4172255,-0.18169522,0.36294466,-0.19395927,0.09752258,-0.16200331],[0.56238693,-0.33705324,-0.17753705,0.45948556,0.51525533,0.37334442,-0.14043207,0.56134045,-0.13323525,-0.18106829,0.034504857,-0.20281097,0.6037312,0.09131037,-0.008523773,-0.34151465,0.43645906,-0.03894436,0.50519997,0.17425147,0.121204495,0.5594383,0.4378148,-0.26920027,-0.086680464,0.46138254,-0.04199995,0.53287697,0.559144,0.5314295,0.45109653,0.5723715,0.50199866,-0.0017590736,-0.01641966,-0.3456906,0.3610006,0.31907824,0.35280776,-0.31969908,0.24151486,-0.13953565,-0.3397592,0.1094176,0.5320986,0.04547457,0.35182422,0.48488435,-0.043110635,0.15458436,-0.16200401,0.06695664,-0.2713436,0.22017565,0.36409974,0.434685,-0.10695759,0.45779943,0.26114604,0.4683988,0.08003331,-0.10938714,0.04152961,0.00914295],[0.30722076,0.45203528,0.42798582,0.4041444,0.47651795,0.18374936,0.30862477,0.38961416,-0.3427404,0.5257773,0.035525996,0.6003002,-0.31257313,0.4569238,0.08237139,-0.37008053,-0.0733026,0.2558656,-0.33031294,-0.22082455,-0.29244348,0.36124232,0.08481902,0.5303591,-0.14202823,-0.3652933,0.124270916,0.12681241,0.044411957,0.588014,0.5121872,-0.07320146,-0.4208485,0.22797881,0.24854326,-0.036677085,-0.22458868,-0.05614011,0.09002304,-0.070909664,0.03391156,-0.31201565,0.11067511,0.553966,0.11224923,0.23039669,0.0800418,0.49352756,-0.056014188,0.124604076,0.1469154,0.23224375,0.49928576,-0.30015862,-0.28378332,-0.2293007,0.31942067,0.38607025,-0.15569533,0.030814234,-0.3306681,0.38384947,0.04673982,-0.10041825],[0.060264647,0.49579167,0.12061606,-0.026009794,0.25351617,0.40758532,0.38555568,-0.09968268,0.052400284,0.5244939,-0.067827575,-0.1815747,0.08730722,0.088911094,0.46123552,0.45446256,-0.05559042,0.42831,-0.1981424,0.15172487,-0.40991223,-0.066869654,-0.016485944,0.69402295,0.34303033,0.20882824,-0.038916864,0.40733084,-0.16668242,-0.07858137,-0.4302352,0.15693362,0.668695,0.1003467,0.3842965,0.25022933,0.6220582,0.408575,-0.06315103,0.3977311,-0.07242346,0.60815674,0.055051606,0.29473102,-0.25040823,-0.17075881,0.1479722,-0.20560436,0.18037383,-0.034356784,0.537014,-0.5104214,0.5273443,-0.43865612,-0.023265868,0.31380355,0.018105533,0.5566269,0.0061113327,-0.15032089,-0.50082934,0.3469594,-0.05677718,-0.037796725],[0.15685204,-0.09093589,-0.009425287,-0.40497255,-0.0064466223,0.54883325,-0.029600615,-0.39462066,0.39012346,0.26316154,-0.46008673,0.087702736,0.23497584,0.3997205,0.2697387,0.23225944,-0.068507634,0.30335414,0.4609962,-0.5037792,-0.050109245,-0.33787206,0.10509086,-0.26657808,0.36651778,0.33619696,0.38975668,-0.15853305,-0.0027268329,0.26687482,0.2173196,0.041704044,-0.26549438,0.21480775,-0.18082163,0.1013209,-0.35039976,-0.12794816,0.21991074,0.6130755,0.36740264,0.199782,0.20170306,-0.38479432,-0.35061586,0.3772944,0.21800031,-0.15339273,0.108706586,-0.01515738,0.24537371,-0.31325015,0.17384909,-0.031526133,0.26115862,-0.0712909,0.46858963,0.44627488,0.28857854,0.44796178,-0.32090265,0.09274462,0.27413443,0.35194558],[-0.014095801,-0.23212664,0.364257,0.47774565,-0.022393031,-0.2609257,0.4756277,0.6591987,-0.02850528,0.010738486,0.16431081,-0.13707785,0.07745189,0.11223268,-0.011895053,0.3744492,0.5287208,0.6565736,-0.19459406,-0.1628381,-0.18108791,0.4457814,0.54075,0.61602914,-0.1552586,0.32429284,0.41964144,-0.3884719,-0.107298225,-0.09594555,-0.35155427,-0.35281527,0.43031615,-0.07932035,0.61040527,-0.20445967,-0.11522648,-0.2865617,0.24156435,0.17551707,-0.27058822,-0.15066326,0.20732026,-0.01229579,-0.32448578,0.4073776,0.3467489,-0.32557824,0.7340548,0.5097773,0.32456928,0.55679536,-0.21084824,-0.19134971,0.31011698,-0.12471789,0.31966692,0.22941197,0.6868294,0.04926983,0.35008422,0.51467735,0.4638129,-0.14021812],[-0.19854066,-0.14083739,-0.23630865,0.021169966,-0.048071064,0.13538258,-0.03238787,-0.11704911,0.082334116,-0.27596492,-0.3452191,-0.17831735,0.30222315,0.4292182,0.324025,0.2801783,-0.20492108,-0.24172248,-0.23195764,0.16842438,0.21804616,-0.34653524,-0.41249174,-0.42609325,0.058410596,0.08515503,-0.12985508,0.5149381,0.23355894,0.57041603,-0.0038135934,0.32469043,-0.074736625,0.220148,0.66851115,-0.030080967,-0.4869354,-0.23032571,-0.16816609,-0.026623517,-0.018918887,-0.13778959,-0.23762916,0.2639696,-0.2571452,0.2869285,0.5757203,0.63763136,0.059379574,-0.43762067,-0.30932203,-0.15816146,-0.21492991,-0.034992814,0.6173064,0.082027644,0.30269152,-0.5173694,0.2339327,0.15593787,0.62508184,-0.34892914,-0.21093434,0.24625663],[0.58347887,0.26556307,0.5891295,0.2759608,0.0010317499,0.30437738,-0.25154585,-0.41172877,0.21828447,-0.04407781,0.60599613,0.35771218,0.3002715,-0.3775368,0.35435897,0.12566788,0.02240087,-0.21760567,-0.21408606,-0.4030718,0.38027784,0.4269553,-0.20669381,0.27521375,0.32846537,-0.19056882,0.44697914,-0.31554973,0.20011717,0.31355685,0.34482214,-0.45359102,0.34786317,0.33269048,0.3241029,-0.4626826,-0.002399378,-0.4726553,0.12067963,-0.5519295,0.542586,-0.31848225,0.31998634,-0.23585507,-0.5622893,-0.26834214,0.19893822,-0.09011888,-0.023766026,0.18652701,-0.36082467,0.24506873,0.26926112,-0.21450098,0.18016769,-0.18503527,0.33124292,0.16679253,0.51691985,0.31603807,-0.34155056,0.22023067,0.32951012,0.30624905],[0.4190086,-0.07234731,-0.056103926,-0.22278723,0.3027341,0.06859534,-0.052726775,0.27336413,-0.2511269,0.12861988,0.07288602,-0.07019199,-0.052535865,0.6679283,-0.21940036,-0.15137112,0.28419396,0.6959509,-0.3210642,0.109835126,0.30801037,0.27575466,-0.036004987,-0.20077002,0.40914693,-0.10718428,-0.0010316896,-0.2983264,-0.2186852,0.033302043,0.24771091,0.4982101,-0.17074719,0.16306466,-0.015362787,0.3509096,0.12336564,0.64968336,0.061732516,0.5395774,0.011226416,0.08804768,0.029892009,0.5639669,-0.23160975,-0.16287181,-0.015374043,-0.15099874,0.050753392,-0.064505436,0.13604346,0.4517685,0.32438198,0.04788461,-0.27460322,0.3989063,0.13576077,-0.063721955,-0.030776411,0.15397543,0.3826749,0.5258278,0.32436746,0.67469275],[0.3908211,0.18460609,-0.32796395,-0.28397587,0.6548913,0.62495303,0.29463795,-0.15562564,0.54702735,0.25482962,0.49246532,-0.03760262,-0.08312382,-0.058028225,-0.2413992,0.030142132,0.6643844,0.63129866,0.14716129,-0.22962373,0.1899278,0.4573746,0.48193023,-0.35146374,-0.045979794,0.44043216,0.4418365,0.3665373,0.5117875,0.003753958,-0.05371304,-0.104812294,-0.34819758,0.0977012,0.17955154,0.12834232,0.32910016,-0.23498432,0.2637303,0.14988686,-0.12994862,0.3921635,-0.100332975,-0.07959272,0.36260808,-0.13508572,0.63738227,0.66919374,0.19516028,0.29219875,0.13885833,0.62111187,0.11750316,0.41045862,0.6097978,0.5091311,-0.01305447,0.22142662,-0.10112921,-0.19477442,0.029884558,-0.20367742,0.00025886574,0.028506361],[0.33507922,-0.15483212,-0.45704335,0.33010522,0.31659308,0.48547062,0.311495,-0.6235623,0.58178115,-0.24994466,0.1098845,0.35537526,-0.29765308,-0.26719794,0.2757081,0.38295603,0.3791661,0.0121147325,-0.15425195,0.08954022,-0.21434075,-0.23879673,-0.05437282,-0.06653477,0.057630803,0.30848333,0.020762378,0.15685552,0.61510384,-0.2623462,-0.19820419,0.4000938,-0.480895,-0.34138006,0.066089354,0.5834621,-0.47736654,0.34915712,0.28512207,-0.20072533,-0.52775615,0.32361406,0.46923482,-0.083810575,0.07864202,0.5557295,0.128214,-0.003520438,0.41045472,0.1710126,-0.08306415,0.5004255,-0.56030196,0.38344315,0.32373485,0.5175992,-0.31831607,-0.38131884,-0.3180947,-0.16214724,0.5306329,-0.4829545,-0.552331,0.21048436],[-0.1080654,0.381868,0.66940075,0.18451272,0.07192575,-0.2849061,0.5050983,0.004966995,-0.13253441,-0.10956513,-0.1163769,0.41738024,-0.010545881,0.5788216,-0.3369183,-0.33485666,0.5415492,-0.20259155,-0.35618848,0.23613957,-0.1730464,0.42541113,0.23746766,-0.108516164,-0.28488013,-0.2019278,-0.20123182,0.51001406,0.47737643,0.49235752,-0.078170136,0.3310684,0.51617134,0.20039307,-0.35203916,-0.18120879,0.69393086,0.18533653,0.09692623,-0.25660968,0.07829148,0.574327,0.4105574,-0.09692947,0.23757334,0.37776917,-0.29725978,-0.24719287,0.53441757,0.05696002,-0.00852205,-0.14143158,0.26630116,0.22595493,-0.18947253,0.027074207,0.44412157,0.028714616,-0.07892498,-0.26713702,-0.2703838,0.23144116,0.09435221,0.18771583],[-0.25108078,0.00039581666,0.36235625,0.28090984,0.48125002,0.4625964,0.26420578,0.6750024,0.47158605,0.28743058,0.106495984,0.13132526,0.23321325,-0.01819184,0.6097197,0.15520704,0.4202938,0.049138483,-0.054011647,0.09571073,0.32960865,0.016922047,0.1436417,-0.10786432,-0.30779728,-0.0674239,0.6029208,-0.33749652,0.6089328,0.39603254,0.32031718,-0.24573205,0.068433724,0.27032918,0.32377172,-0.08356323,-0.17497791,0.40059125,0.23033762,0.5426629,-0.019384908,0.17450969,0.03227601,0.5861138,0.27929366,0.62752885,0.32132852,0.2406787,0.30791506,0.11335901,0.14690126,0.08351371,0.14083113,-0.23905994,0.5244386,0.53007257,-0.045546368,0.5567243,0.19751574,-0.20882377,0.44406992,0.6299811,0.03758556,0.48620233],[0.14670594,0.025497383,-0.121371716,0.5139275,-0.07088855,-0.2256111,-0.009414885,-0.0075096525,0.09913341,0.08874568,0.021079058,-0.18681934,0.06268632,-0.31265768,0.4729902,-0.17113093,0.5519527,0.06729921,0.015030637,-0.08465072,0.14410521,0.5170839,0.17154945,0.16085629,0.11191132,-0.08821545,0.5832112,0.51318854,-0.19870882,0.033604514,0.038917467,0.10579605,-0.26286256,-0.014544369,0.24545948,0.12996365,0.6045824,0.48863718,0.25935394,0.0662254,-0.33455098,0.6916972,0.08307881,0.19794185,0.2676813,0.12438251,0.18117066,0.087473355,0.21239589,-0.26804033,0.60730785,-0.29012668,0.13015407,-0.18280776,0.0901232,0.3877395,0.3337225,0.16369401,0.22113054,0.067406654,0.2423691,0.49744147,0.4758448,0.5033617],[-0.0052017584,0.57496625,-0.15135168,0.047372445,-0.019995684,0.12699038,0.09229447,0.35349753,0.6289052,0.45209146,-0.030228324,-0.021269359,-0.2846752,0.10924742,0.6956123,0.08094446,0.37177983,0.45368737,0.44280156,-0.33257264,0.6234406,0.16280387,-0.21819387,0.59655786,-0.14870095,0.64950335,0.5867733,0.5241492,0.39152908,0.19653444,-0.23180713,0.050554164,-0.22335842,0.50276244,0.08816088,0.60845184,-0.20469761,0.025188614,-0.12164773,0.62598145,0.5611427,0.23420009,0.26822484,-0.0100896945,-0.02240421,0.47395635,0.66341287,0.14539741,0.0766762,0.19469808,-0.22525625,0.59099776,0.5421443,-0.022311786,-0.09433193,0.49210972,-0.01243852,-0.0564247,0.47758064,-0.14580996,0.24060239,0.2481143,0.012493544,-0.13810943],[-0.30308825,0.5955965,0.035770986,0.48919612,0.4033637,-0.19593637,-0.24527884,-0.38779148,0.57184815,-0.300506,-0.29527208,-0.051459778,0.3431137,-0.38455567,0.38866463,-0.19590987,0.13146736,0.16712911,0.16931921,0.057673275,0.6167104,-0.28533003,-0.41561595,-0.34048945,0.037648384,0.2861398,0.5220514,0.02733357,0.5155959,0.18398546,-0.21890782,-0.26503932,-0.15874465,-0.38413635,0.16574979,-0.10487458,-0.101844974,0.4867161,0.48767647,-0.28515273,-0.3301546,-0.3478874,0.3092438,-0.20452817,0.13072714,0.6417428,-0.35593843,0.5541189,0.19294728,0.34171486,0.26164952,-0.2908563,-0.13497677,0.40391228,-0.2025776,0.4179037,-0.43573326,-0.17470148,0.17794545,-0.17610581,0.49775842,-0.025656719,-0.028435936,-0.1618111],[-0.3705215,0.5333897,-0.06343732,-0.13767788,0.21007472,-0.06930485,0.3394348,0.38037357,0.37217948,0.44963643,0.31333715,0.37247184,0.46894845,-0.040859003,0.1275079,0.42456213,0.6830204,-0.09376008,0.61285704,-0.32634062,0.38699275,-0.3235101,0.40810785,0.56052655,0.4875416,0.12124613,-0.3779319,0.1945594,-0.16468208,0.29483482,0.6539692,0.33354092,0.18309014,-0.1323694,0.14031243,0.08992445,-0.30300698,0.7049588,0.2113545,0.6985603,0.49482504,-0.036118563,0.25883973,0.11394178,0.3198182,0.46565035,0.30691785,0.024426332,-0.2604295,0.3895953,0.40954602,0.5638465,-0.2534421,0.6910776,0.6049093,-0.026887244,0.077689305,0.5380687,0.30393708,0.712276,0.0030688718,-0.06233158,0.58125937,-0.2006478],[-0.14399652,-0.050473366,-0.1506298,0.30043578,-0.43900976,-0.101896256,-0.22656347,0.4587866,0.4402158,0.2243095,-0.2776114,0.31226707,0.39603633,-0.13626312,-0.3560531,-0.15988435,0.1365185,0.2351639,0.15041494,0.06416562,0.1770006,0.4691839,0.20435366,-0.3531401,0.42866012,-0.009593493,-0.37017784,-0.17609134,0.4712881,0.16496004,-0.4869585,-0.2219815,0.47066352,-0.2997385,0.10311626,-0.28027922,-0.32622075,0.49659994,0.44691724,-0.37981346,-0.109070115,0.490077,-0.21156122,0.05283871,0.33771223,-0.012594491,-0.4720871,-0.44143757,-0.3163302,-0.013098322,0.015361025,-0.18550175,-0.40478852,-0.3163207,0.44656906,0.21299024,-0.08991168,0.06356625,-0.22258267,0.04464109,-0.45463768,-0.29300287,0.12673998,0.15233333],[0.030775795,-0.24137609,0.39962238,0.057607863,0.3064807,-0.2647401,0.21427993,-0.39298517,0.2721166,0.26988348,-0.41088897,0.21834037,-0.43135178,0.3427312,0.6803304,-0.18753889,0.011797534,-0.07746705,0.30885008,-0.23053059,0.27282628,0.20173042,0.1806871,0.15365519,0.4283379,0.6420941,0.19009514,0.11528566,0.000921015,0.29922336,-0.007173048,-0.15793356,0.05897705,0.33986968,-0.24476798,-0.02170478,0.117665626,-0.061319213,0.5055035,0.103877,-0.1927495,0.13189588,-0.086621314,0.6734324,0.3707095,0.069261245,0.57673097,0.5434623,0.26124468,0.27084845,-0.10007903,0.5723429,-0.45595914,0.13545719,0.31365588,-0.004617336,0.14840922,0.14156418,-0.45776668,0.23628639,0.4908313,-0.4162439,-0.57296383,-0.18371443],[-0.1299421,-0.15803465,0.4638531,-0.016784951,0.5687825,0.513767,0.20959428,-0.16412047,0.073521584,0.60911936,0.28602833,0.19438323,-0.17649783,0.267994,0.39527217,-0.04610399,-0.31683466,0.5950178,0.3672971,0.21578994,-0.12257306,0.3608765,0.07706701,-0.044689905,0.012331424,-0.03379417,0.3538862,-0.07157284,-0.0779934,-0.13101839,0.42955172,0.59473467,0.6977675,0.40715647,0.4030557,0.64147794,0.32980728,0.2287724,0.28409985,0.1931705,-0.023737805,0.63970286,0.6115848,0.38537115,0.35829398,-0.11515402,-0.13117678,0.25770363,0.44243535,-0.15144323,0.45381045,0.1537843,0.24773023,0.21511254,0.45219508,0.47614032,0.63494676,-0.19152972,0.2876447,-0.15953681,0.1711204,0.5402689,0.12633924,0.12465271],[0.14256234,0.28475612,0.5069403,0.19532996,-0.5274159,-0.3528881,-0.05064995,0.26039585,-0.5353027,0.3247442,0.30672047,0.0594058,-0.1414604,0.25080386,-0.22847569,-0.14961192,-0.2068825,0.2737685,0.16705073,0.14417998,-0.05609737,0.09829168,0.22999088,0.44886214,-0.33571497,0.037101742,0.37132376,-0.41339505,0.2674011,-0.33760095,-0.48117623,0.15073329,0.30502862,0.17752355,-0.25375083,0.3872732,0.18253338,-0.3414566,-0.5008477,0.20567478,0.00052147696,0.6105245,0.18296534,0.060020223,0.004670139,-0.28401524,0.025238723,0.37493357,0.2176372,0.51452404,0.6712594,-0.039683834,0.37328452,-0.24496223,0.23552828,-0.54902405,0.3028244,0.48826018,0.15643324,0.36516806,-0.013113918,0.63059753,-0.08972441,0.106432475],[0.62994516,-0.05923765,-0.09506425,0.13376233,-0.15731575,-0.21759233,0.08587439,0.40796542,0.3373216,0.009250954,0.5255726,-0.04544473,0.08595153,0.452263,0.29681832,0.29558414,0.24572216,-0.21850139,0.7590607,-0.14317656,-0.15799414,0.008657509,0.28999788,0.25980213,-0.17084368,-0.14261316,-0.056333948,-0.11417852,-0.20396729,0.3387847,0.7272549,0.20587285,0.20525761,0.6960082,0.16920546,0.31396022,0.65253305,-0.07999287,-0.09994114,-0.205627,0.5402127,-0.19331229,0.15296909,-0.0897527,0.53906214,0.5097082,0.32294714,0.71307886,0.4782072,-0.0884966,0.43503854,0.579322,-0.093112916,0.7249059,0.6944847,0.40577626,-0.20894012,0.51092666,0.55942076,0.26304534,0.7392367,-0.23262091,0.57232916,0.33989862],[-0.27209827,0.5741067,-0.20315686,0.1102203,-0.16065693,-0.16585125,0.22902773,0.07165207,0.013264135,-0.4844072,-0.19535173,0.21273972,0.2795907,0.56895834,0.5785835,-0.0029738664,0.21530782,0.17015094,-0.08614793,-0.3346525,0.1054997,0.030322943,0.14504461,-0.13706282,0.043445673,0.18590505,-0.12523969,0.008304811,0.1220483,0.4371131,0.07968771,-0.15535975,-0.12251521,0.36091232,-0.32072228,0.27786323,0.31621206,0.42948946,0.5427199,0.171095,-0.5004059,0.27198234,0.42444757,0.498646,-0.04208467,0.4724925,-0.36065006,0.18992868,0.004140445,-0.11730586,-0.5593123,-0.018641265,-0.22171931,0.25129807,0.025445255,-0.08613088,-0.50576395,-0.580262,0.21754828,-0.068158954,0.5394017,0.328157,0.1747231,-0.06475042],[-0.16913415,0.2661991,0.042614177,0.065860875,-0.31428966,0.24318385,0.4011015,0.38910294,0.38991165,0.63959223,-0.18773435,0.46991685,0.37915814,0.19167365,0.3453199,-0.035826143,0.27898598,0.38690627,0.2541753,0.12568145,-0.29254246,-0.22827403,0.17070219,0.29151082,0.04167382,0.48489523,0.5752259,-0.2821102,0.17971371,0.44157752,0.22629479,-0.052189726,-0.19251245,-0.2755613,0.5099874,0.39262232,-0.36093503,0.3198233,-0.2757699,-0.28872326,0.5893069,-0.105375014,0.23584509,0.38218153,-0.24215284,-0.32737213,-0.24994552,0.061523706,0.27902386,-0.02171504,0.022900164,-0.105094954,-0.14621447,-0.40542635,0.25134307,0.011527007,0.5992599,0.18635987,-0.0061491407,-0.24215934,0.41743198,-0.046993192,0.6666418,0.3490199],[0.26603475,0.33979884,-0.14161955,-0.11962516,0.21099836,-0.17590444,0.398348,-0.1070225,0.5101548,0.5558525,0.5145916,0.08368279,0.049629107,0.11378405,0.639656,-0.111802235,-0.12720263,0.7326199,-0.14256726,-0.13225193,0.2189478,0.69177717,-0.14655098,0.73477626,0.7856433,0.18481621,0.7033614,0.14080721,0.5065564,0.19198897,0.14580667,0.44791624,0.4857996,0.34119445,0.10325984,0.75205714,-0.0390757,0.1508561,0.20446363,0.5383701,0.2285637,0.819027,0.66054875,-0.06369045,0.74660826,0.6641714,0.59540564,0.20724207,0.34010446,0.02119881,-0.1252653,0.10542333,0.25607422,0.19300167,-0.11215099,0.5459882,0.6240988,-0.092830084,0.3352738,0.67971337,0.10247646,0.31409678,-0.04599308,0.44582084],[-0.3225545,0.09077193,0.2413474,0.5505499,-0.12002393,0.30809808,0.15589045,0.34159613,-0.39309534,-0.14213711,-0.004791911,0.4876399,-0.25163567,0.38551992,0.24607027,0.07278393,0.0625206,0.54596686,-0.22197238,0.06368924,0.037678104,0.008997479,-0.2560245,0.43697998,-0.2721585,-0.02286056,0.31602916,0.4082974,-0.12697825,0.42717546,0.48386428,-0.36006042,0.34854093,-0.033755362,0.4266279,0.021233061,0.32280907,0.517623,0.28312647,-0.08555504,0.24398719,0.2052267,-0.32272592,-0.08362589,-0.105399914,0.43448767,0.13414755,0.018810464,0.6404785,0.52809024,0.064337835,0.04074217,0.45794016,-0.2678178,-0.36359283,-0.19066554,0.2197274,-0.32913572,-0.19412555,0.28799176,-0.3923495,-0.010099687,-0.05551535,0.10257665],[-0.35222083,0.30705446,0.24843442,-0.24279289,-0.32044974,-0.3234395,-0.14171547,0.37319872,-0.41654003,-0.04482784,0.1147705,-0.23746681,-0.07331961,-0.41408414,0.4434031,-0.04651036,0.016695276,0.3097064,-0.24815233,-0.0208938,0.058544174,-0.05769279,0.5452182,0.4473969,-0.23745964,-0.37001958,0.32529896,0.31118357,-0.37689608,0.33301342,0.31123528,-0.23154673,0.46384558,-0.14256361,0.40853578,-0.08220023,-0.31035256,-0.08801029,0.21861354,-0.08330432,0.36279738,0.33116916,0.2943962,0.24699321,-0.42720687,-0.044870947,0.34260696,-0.43182877,0.30832827,0.15383491,0.24849421,0.33252123,0.35591295,0.04323253,-0.030755531,0.5028455,0.51427245,0.58328277,-0.35375792,0.21919343,-0.2160945,0.47338912,0.4362215,0.08731995],[0.40674114,0.5700061,0.2621201,0.28006473,-0.20557094,0.37865078,0.26991203,-0.21768452,-0.07788942,0.0019641912,-0.14653236,0.39833727,0.42117614,0.5638106,-0.16507466,0.28141588,0.17605658,0.5874652,-0.19385429,0.229583,0.2686027,0.6591446,0.25597912,-0.0772285,0.29091358,0.4881769,0.40528145,0.52300346,0.036793295,0.26834607,0.48920408,-0.11919675,-0.27020058,0.112093486,0.19077908,0.0030431952,0.32541743,-0.11036594,0.1595509,0.6216357,-0.14366688,-0.19511046,0.39073724,-0.0022417991,0.60146224,0.41060498,0.44344464,-0.14739823,0.12396384,0.20101722,0.6131789,0.31705213,-0.21795553,0.17791243,0.33181694,0.4177631,0.56489766,0.21781906,-0.18829493,-0.1882375,0.5732485,0.49985033,-0.20043977,-0.09761012],[-0.51825744,0.090271875,-0.39813632,-0.3087684,0.23301037,0.5461284,-0.15914346,-0.1605789,-0.22730075,0.21252644,-0.11148043,0.34176973,-0.4117206,-0.30603734,0.18833071,-0.060122132,0.45846146,-0.41776118,0.086378254,0.4197897,0.35710776,-0.073350996,-0.47364268,-0.24570872,0.4733131,0.6534441,0.14290921,0.13996035,-0.3147051,0.17739508,-0.12431502,0.48527813,0.12195402,-0.19540414,0.29860982,-0.20778333,-0.34938693,-0.14840087,0.4553595,-0.117241964,-0.5210511,0.3430959,0.22522633,0.52950066,-0.004196573,0.21353507,-0.12548399,0.6141318,0.28883237,0.27219516,-0.43329775,0.20183504,-0.33089337,-0.32787699,0.18479659,0.19897783,0.07164794,0.047759287,-0.019986952,-0.052208975,-0.20845462,-0.20663807,-0.49484292,-0.4395102],[-0.66330427,-0.2327529,-0.055431858,-0.48914137,0.09197157,-0.11375217,-0.6751184,-0.4729014,0.19544,-0.5637477,-0.45663723,0.0046703685,-0.64195824,-0.65204716,-0.057785086,-0.31490818,-0.7382648,-0.4990319,-0.3696677,-0.01694854,0.14065525,-0.6967318,-0.04815464,-0.2240966,-0.13757749,-0.28635618,-0.559426,-0.6955203,-0.52840865,-0.1435644,-0.6801266,-0.056540668,-0.52174723,-0.3635619,-0.05708917,-0.13140039,0.08020102,0.05523049,-0.7175167,-0.6807095,-0.37947428,-0.49041545,-0.3928144,-0.3353714,0.16365023,0.11131621,-0.2042481,-0.4537026,0.0029396322,-0.76799613,-0.67928517,-0.22316301,-0.5506935,0.21745643,-0.60338163,-0.46447486,-0.32244635,-0.0757292,-0.19500847,-0.1481117,0.1833226,-0.32423115,-0.21173361,-0.42932668],[0.46434957,0.56425816,0.39359096,-0.427129,0.103846185,0.44563168,0.43442336,-0.33700034,-0.23662622,-0.2070177,-0.40405655,-0.08209365,0.45178106,-0.037546184,-0.017751554,0.31009537,-0.3261158,0.16264749,-0.29827067,0.16273127,-0.27634123,0.07985687,0.4438455,-0.025803426,0.48351794,0.074056685,-0.44843087,0.4556677,0.15837532,-0.26179922,-0.025763504,0.2673037,-0.3578889,0.119257405,0.27101544,0.5247985,0.056874074,0.4052443,0.19278646,-0.19983327,0.28289437,0.18471256,-0.14301988,0.44037405,-0.09326364,0.4293406,-0.27047828,0.58775103,0.5494851,0.3627594,-0.41725254,0.18506706,0.35803142,0.44301692,-0.2909157,-0.20952766,-0.17146598,-0.016315809,-0.2818395,0.14702693,0.13686153,0.51370364,-0.428581,0.07932481],[-0.28523317,0.6709042,-0.01304391,0.288015,0.17051287,0.23421447,0.09852883,0.103466205,-0.2865435,0.100311935,0.47086897,-0.193249,0.36805567,0.16736822,0.10870317,0.076659866,0.38734064,0.39122117,0.50101477,-0.066292875,0.30504033,0.40923652,0.52279484,-0.39613912,0.35294363,0.5630921,0.09677239,0.27851295,-0.014199208,0.24539755,0.12444513,0.6600749,0.547265,0.58115464,0.5377935,0.6133068,0.034275174,0.22241178,0.32379782,0.37963986,-0.20328692,0.453997,0.19349538,0.5409465,0.19011366,0.311154,0.065203786,0.002474891,0.08728758,0.059476253,-0.14497629,0.100151174,-0.32794675,-0.18903506,0.21064149,0.15017177,-0.26778126,0.1266088,0.5005876,0.52361655,0.38548166,0.50823843,0.14033574,-0.2840547],[0.48297223,0.24967638,-0.04254352,0.23831719,-0.13802668,0.60906553,0.58945173,0.1920691,0.4093065,-0.067591675,0.13605063,-0.20209002,0.47986323,0.50686586,0.16290347,0.5901713,-0.13261028,0.32737374,0.33458537,0.6907939,0.60585546,0.33511224,0.24162243,-0.19798055,0.41652063,-0.12299672,0.37451002,0.5633627,-0.023382451,0.028993964,-0.08785583,0.040205654,0.006766969,-0.35032994,0.23602343,0.26135775,0.1093293,-0.33581886,0.018008772,0.49766448,0.2586929,0.67556345,0.13943338,0.50521696,0.22726226,0.100270316,-0.24799085,0.1800465,-0.09339993,0.57585365,-0.034003787,0.20803401,0.27300397,0.08549058,0.40736473,0.021378059,-0.08951854,-0.256849,-0.22003376,0.28762582,0.12877724,0.11025171,-0.043676864,-0.022101399],[0.42306846,0.2000593,0.4803533,-0.19834816,-0.08962917,0.15764278,-0.29425737,-0.24603958,0.045752533,-0.27188194,0.5820092,-0.044596396,0.045894306,0.59236956,0.56439877,0.058300957,0.43176845,-0.059528854,0.50771433,0.4309845,0.37165308,0.12355655,0.18533036,0.28686544,-0.0156125,0.42625535,0.2787271,0.37291285,0.10795231,-0.2790128,0.5248266,-0.03735121,-0.33161902,0.10887891,0.24553342,-0.02652414,-0.27913263,-0.16605404,0.44779232,0.58784693,0.30111054,-0.25305104,-0.33225405,-0.23323546,-0.19959804,0.21621267,0.074533746,0.15057243,-0.3073037,0.2886925,0.038455885,-0.25099674,0.43248114,-0.10517997,-0.26059204,-0.31363347,0.42518356,-0.3355142,-0.10443455,0.4909716,0.45708072,-0.31232142,0.0005931378,0.4519465],[0.44980934,0.48579934,0.45284697,-0.17990285,-0.043920957,0.3434552,-0.3910072,0.04820837,0.13978241,0.06373528,-0.09477879,-0.2392521,0.40901583,0.2473026,0.311038,0.42352182,-0.074894615,0.48657978,-0.15499271,0.47413918,-0.04427412,-0.24898522,-0.29780695,0.42476875,-0.29593867,-0.24851623,-0.17488636,0.4923968,0.06984571,0.34301123,0.1628732,0.2410809,0.5532822,-0.1803993,0.087135665,0.5249285,0.022345923,0.5486103,0.1879629,0.1787399,-0.02377214,0.55035615,-0.14949904,-0.2383334,0.38424417,0.63206124,0.50819486,0.5893692,-0.21357767,0.28481737,0.1158098,0.49887744,-0.28569072,0.40100074,-0.26202518,-0.14586905,-0.22872432,0.29081315,0.49657476,0.018459357,0.4045014,0.35098767,0.00007180202,0.5760514],[0.51504326,0.33912197,-0.1736204,0.41707063,-0.2367782,0.06955573,-0.012796269,-0.1337463,0.11980384,0.050729938,0.61542046,-0.2571464,0.09620451,0.31563503,-0.26718628,-0.20762548,0.1474248,0.24739788,0.1347908,-0.24310322,0.3508946,-0.26575285,0.64459217,-0.14717536,0.035380255,-0.2605108,0.2579946,-0.5059558,0.16621135,-0.15370883,0.31519467,-0.2905541,-0.109972894,0.08138007,-0.03331999,-0.5300447,-0.07771253,-0.55262995,-0.61975116,-0.05124391,0.37997305,0.04261514,0.17285848,-0.144743,0.053370733,-0.6263463,0.05134439,-0.22760917,0.36486694,0.0025185263,0.50091195,-0.27953127,0.62494975,-0.6225526,0.2539264,-0.49769714,0.6682016,0.23201284,-0.23666456,-0.33599043,0.15022986,0.12701339,-0.22868796,-0.14564294],[0.1925129,0.34669957,0.29211134,0.46252972,-0.0075955284,-0.041479208,0.43761355,0.08212344,0.06618091,0.3075468,0.70992196,0.08453038,0.47670308,0.10806205,-0.09625091,-0.31525186,0.30901268,0.39828306,0.12196301,0.6050138,0.14175506,0.49463278,0.2650035,0.45991656,0.018902648,-0.2126446,-0.05655899,0.39807495,0.3301508,-0.27406007,-0.2738929,0.45442984,0.050439242,-0.087809764,0.21670364,0.15591794,-0.13875774,0.26101643,0.1698217,0.0041487673,-0.20606855,0.049901195,-0.10519658,0.105257906,0.4558204,0.2108116,0.41582483,-0.10783269,0.1252377,0.5299087,0.72889596,-0.19767167,0.5962868,-0.1804596,0.104132526,0.26813823,0.085735954,0.11171003,0.2442713,0.42812207,-0.05753665,0.59395915,-0.14518042,-0.106521584],[0.2426143,-0.07077306,0.2568506,-0.044767473,0.08264434,-0.4781963,0.5002956,0.1377115,-0.29121214,0.48977757,0.21697897,-0.33774027,-0.2500362,-0.10384245,-0.037277088,0.14348675,0.44788137,0.6484309,0.052490346,0.2726344,0.04012582,-0.032565374,0.623896,0.3312512,0.29492742,-0.029900609,0.5460853,0.42875135,-0.4299396,0.3426839,-0.25614473,-0.21025194,0.42053446,-0.085386224,-0.03955822,-0.51964104,-0.25032717,-0.08348603,0.3960634,0.07097086,-0.030938426,0.37887788,-0.49212563,-0.10164097,-0.49176878,0.2877675,0.12029228,0.25756493,0.319734,0.3232221,-0.095821224,-0.09708198,-0.2908041,0.17584155,-0.18243025,-0.4329317,0.57680935,0.091932006,-0.058326837,-0.56058925,-0.40478602,0.27992386,0.530272,-0.09969272],[-0.16322963,0.17029837,-0.12982632,0.36239466,0.07664755,0.12716568,0.009781722,0.04481505,-0.067396715,0.37614518,-0.22964887,-0.26192203,0.5956712,0.32525027,-0.39295846,-0.2724694,-0.514933,0.5475287,0.0069709746,-0.32494736,0.09305038,0.5453037,-0.34845287,0.4012893,-0.49582326,-0.43987113,0.38115713,-0.5515407,0.38147905,0.2023024,-0.44601378,0.45572114,0.3018884,0.010079997,0.4061988,0.23511432,-0.28983325,-0.33754227,0.24025273,0.074406534,-0.07329812,0.37273365,-0.5403243,-0.56476086,-0.56050974,-0.46362424,-0.28789118,0.42534178,0.33524805,-0.119296804,0.1648578,-0.44021687,-0.14313689,-0.1521927,-0.3821105,0.16912761,0.61133194,-0.2169866,-0.058457963,0.15818211,0.19594854,0.124700084,-0.31483218,-0.06071549],[-0.14133534,0.29625106,-0.4999039,-0.4647439,-0.32511085,0.53029096,-0.36239183,0.13060327,-0.15677401,0.22439052,-0.33335403,-0.014972952,0.042732753,-0.29536858,-0.21884505,0.07789435,0.18359776,0.17202985,0.44618475,-0.15554368,0.028233618,-0.5812621,-0.26349053,-0.27632698,-0.12620158,0.037509084,-0.58522975,0.24043646,0.17951268,0.44873813,0.33878478,-0.18853894,0.0020899724,-0.27422956,-0.36108682,0.053501934,-0.059273295,-0.3707313,-0.24581604,0.49027517,-0.3934154,-0.4944533,-0.3085451,0.2941036,-0.08123802,0.399559,-0.078837484,-0.18229339,-0.42446816,-0.38229734,-0.14683628,-0.3319097,-0.51463723,0.09744008,-0.18104768,0.05878609,0.12226493,0.26557267,0.009760444,0.4731633,0.09873659,0.26445764,0.09621446,0.07220075],[-0.20282246,0.1291048,0.68324745,0.4083809,-0.05356569,-0.14230414,-0.05844959,0.15259354,0.47921225,0.37688375,0.58756167,-0.41451463,0.05911827,0.04877731,0.21662699,0.36771712,0.4626612,-0.18529077,0.4175338,0.14834322,-0.40929395,-0.08108656,0.18256699,0.5005014,-0.33186138,-0.0023908375,0.45986795,-0.2739966,0.36155838,0.32412893,-0.09944733,0.06309866,0.4999073,0.47998887,-0.35709763,0.032598402,0.19531031,-0.22100797,-0.30150256,-0.037775706,0.41245493,-0.050663203,-0.41283235,-0.281503,-0.070467725,0.0944242,0.19654799,0.19024014,-0.20105094,0.6186689,-0.108283155,-0.3225489,0.6217537,-0.38392514,0.34316334,-0.3239189,0.020921098,0.1694144,0.6006684,0.4868389,-0.1379853,0.39993903,0.56884414,0.018291257],[-0.23356937,-0.26175505,0.63151443,0.10888725,-0.06296885,-0.2823618,-0.103534326,0.48880574,0.35262448,0.63716197,-0.18207258,0.448458,0.42500478,0.18160912,0.15186322,0.23795827,0.08763854,0.38230777,-0.068977416,0.43336433,0.51352257,0.20445192,0.35926464,0.3202299,0.62285036,-0.009758403,-0.12734284,0.01720533,0.454905,0.39496988,-0.2887577,-0.27568507,-0.0518724,-0.28141895,0.56471235,-0.32190642,0.64549977,-0.36973438,-0.3805814,0.4627678,0.59547806,-0.23979665,0.06499736,0.2498366,0.39614436,0.2632103,0.34276804,0.6327786,0.11177344,0.44368142,0.49590525,0.116783574,-0.15497935,0.37329102,-0.2709185,-0.10639507,0.3628064,0.14791279,0.011749535,0.052542116,0.266661,-0.27674943,0.1761241,-0.11693161],[-0.19119497,-0.10286386,-0.12020721,0.49361742,-0.18970104,0.15760039,0.50306654,-0.23837243,0.19300136,0.27296072,-0.2142296,0.38087735,0.36465856,0.2744505,0.05364524,-0.022243064,-0.3692201,0.14398287,-0.5423661,-0.20945586,-0.06586728,0.17276967,-0.27068222,-0.14501171,-0.10709862,-0.5271137,0.39515343,-0.07703728,-0.3820511,0.11093516,0.31941986,0.10379623,0.53689724,-0.32682914,-0.08837688,0.109448865,-0.17731048,-0.3540683,-0.38803077,0.20437337,-0.023214756,0.5403627,-0.13371915,0.27807206,-0.42190456,0.3774653,-0.40507156,0.27179635,-0.20739876,-0.05423536,-0.33332837,-0.41026875,0.00615792,-0.2304107,0.308914,0.35487813,0.46223614,0.40356365,0.55135673,-0.29365358,0.13392793,0.092547044,-0.38401023,0.5012332],[0.024341645,0.3668139,0.24731596,0.30241856,-0.42846513,-0.21950445,-0.12248815,0.526105,-0.030127343,-0.11327866,0.41509306,-0.34281075,-0.30418262,0.3254008,-0.22956663,0.060954735,-0.5318359,0.19982381,0.043129694,-0.049005732,0.1430274,0.47718042,0.5821555,0.20951356,0.028758887,-0.36834377,-0.092872396,-0.09278567,0.39629593,-0.1666458,-0.014257974,-0.18148138,0.14735636,0.08322137,-0.038936026,0.07789315,0.1691284,-0.46553248,-0.41925484,0.34116274,0.44328204,-0.000284797,-0.047260445,0.03424573,0.30122226,0.2559589,0.23649526,-0.16362283,0.025558736,0.2993274,0.118228786,-0.62986386,-0.22046883,0.16493735,-0.260738,-0.27635947,-0.3525944,0.35307738,-0.08288715,-0.5008008,-0.09725365,0.52318823,0.2835069,0.038415886],[0.28033516,-0.057004627,-0.2369343,-0.3306443,0.13118134,0.043408804,-0.48237023,-0.37075865,0.28533068,0.18227577,-0.44484672,0.46963963,-0.44312048,-0.15546891,0.34611353,0.5290719,-0.1375283,0.48090136,0.19896738,0.3319408,0.40873516,0.056040585,-0.4914523,0.39011398,0.26782078,0.14079848,-0.08903699,0.5009748,0.5923482,0.38018247,0.6026952,0.28387251,-0.37083364,0.48677564,-0.1613664,0.305189,0.31155077,-0.31108287,-0.17764527,0.20130378,-0.27536595,-0.10759121,0.3753719,0.002302769,-0.32581726,0.20760448,-0.29326567,0.17480849,0.31828892,0.24173021,0.47241828,-0.24267873,0.11983844,-0.23972267,0.39627847,-0.35662478,-0.0797276,-0.28131115,0.077783994,-0.17326309,0.2604445,0.25569385,0.2993264,-0.27252182],[-0.096373774,0.38151422,0.6201038,0.019934917,0.5713813,-0.24107186,0.560957,0.5350808,0.106260076,-0.20424196,0.2631571,0.12334857,0.13097818,0.008720095,0.5650469,0.5608344,-0.2760372,-0.2260034,-0.278993,0.47225368,0.36488658,-0.22183624,-0.05273684,0.5891405,-0.11754094,0.15129928,0.058362592,0.3331196,-0.32093093,-0.19404747,0.074508436,-0.13326274,0.017164685,0.58991355,0.3802347,0.5882676,0.44804695,0.16184308,0.20632486,0.54456264,0.35389048,-0.12900315,-0.31337756,0.26860934,0.61033815,0.37622663,-0.004804752,-0.15221976,0.6640022,0.20635906,-0.081989996,-0.04536726,0.014014969,0.18389367,0.54232144,0.2667217,0.6470581,-0.02641149,0.33655953,-0.098288655,0.18074387,-0.16296862,0.48662335,0.4627241],[0.10207382,0.73763853,0.28382292,-0.19203219,0.5565171,0.58233345,0.48887733,-0.050645728,0.22972412,0.121624626,0.41755763,0.70178306,0.1301111,0.47508633,0.36855003,-0.09089035,-0.059223548,-0.20216675,0.41015187,0.4817935,-0.10915973,0.37311918,0.37257463,-0.18138379,0.67546326,0.7033314,0.35220456,0.09760105,-0.019005725,0.4293147,0.09189622,-0.017814629,0.02030127,0.67737776,0.4911294,0.3004043,0.19791645,0.5256458,-0.07008011,0.39125675,0.01132006,-0.01253267,-0.11539141,0.18419111,-0.20102046,-0.12106175,0.35035953,0.22597182,0.63994694,0.1723964,0.1195717,0.6364567,-0.013417117,0.3848298,0.028493399,0.60887766,-0.12595485,0.5044068,-0.092827246,0.52043045,0.45674843,-0.05818786,0.37312987,0.5093226],[0.012911815,0.39845568,0.16087958,0.044045158,0.5832182,-0.14302248,0.554843,0.5704148,0.20180115,0.41636315,0.031882875,-0.10716977,0.026149387,0.21575339,0.565068,0.2795295,-0.16566919,0.25932702,-0.26623705,0.34937373,0.5483291,0.5796233,0.13914613,-0.029376604,0.0040149703,-0.2936692,-0.19351842,-0.3665639,0.29998797,0.22449733,0.61106515,0.07965537,-0.17764731,-0.35206175,-0.116153434,0.6008836,0.53681797,0.3744598,0.11157549,0.09745426,0.16682918,-0.00812965,-0.17351161,-0.20790549,0.5034095,0.49432644,0.52975464,-0.24877018,-0.20129186,-0.20926686,-0.10890856,0.4423254,0.48728138,0.25796318,0.30389482,0.53693146,0.5652905,0.18888173,0.5504951,0.19955187,0.49603373,0.46634215,0.24211472,0.42536587],[-0.16577268,0.17695597,0.24678867,-0.3859248,0.1643169,0.2723932,-0.60431606,-0.51057696,0.29391322,0.27735052,0.17895399,0.37529808,-0.57704467,-0.011244563,-0.14439249,-0.17089453,0.06736173,-0.37714192,-0.15750377,0.12979987,-0.32190248,0.12354284,0.040463682,0.2251971,-0.3845513,0.14904027,-0.37936553,-0.3227561,0.08096068,-0.028100824,-0.22450997,0.2855552,-0.5072501,0.51175076,0.5466667,0.618275,-0.2915808,0.098096885,0.5874764,-0.3456859,0.14026825,-0.36020926,0.5206082,0.53771985,0.045951165,0.28985792,0.20313935,0.0011818224,0.154957,-0.31456292,0.014236305,0.26013604,-0.37008432,-0.1030851,-0.16023932,-0.34910533,-0.22365364,-0.61804104,0.03842935,0.5669514,0.18753716,-0.17736584,-0.3319137,-0.29590008],[0.8538198,0.41304448,0.54385746,0.7553902,-0.009852738,-0.07786673,0.25506008,0.19197139,0.16464971,0.5868498,0.44365263,0.20706926,0.2391269,-0.016658656,-0.2869749,0.64773315,0.52779645,0.49826905,0.5671974,0.23121601,-0.22932827,0.4771487,0.040873487,0.7749922,-0.030815257,0.5503888,0.45564547,-0.063689254,-0.34217215,0.33300406,0.07097319,0.12374945,0.36307526,0.070377536,0.09148511,0.31158522,0.39402768,0.44348198,-0.21599145,0.2964475,0.28762856,0.08317365,-0.26934654,0.05566734,0.40801588,0.6204936,0.4685481,-0.0073405183,-0.22339052,0.8218535,-0.23357438,-0.31147987,0.43774068,0.4371589,0.11246046,0.5787424,0.5568575,0.52515846,0.0009852488,-0.21256538,-0.31708148,0.28943068,0.4489326,0.23832643],[-0.21002518,-0.27017337,0.07349148,0.31724837,0.30947462,0.5291769,0.31502694,0.20374322,-0.1431237,-0.08074484,0.17807467,0.19541006,-0.2872289,0.33077145,-0.23517396,0.3712048,-0.1552386,-0.24860416,-0.2864554,-0.38110763,0.2518021,0.33686912,0.1819838,0.15533032,0.12791018,0.34435332,0.10810121,0.14546238,0.47253507,-0.3714853,-0.21887954,-0.057377636,-0.14732975,-0.22494192,0.10880151,0.42657232,-0.40083438,0.24925543,0.06892751,0.44597283,-0.3094231,0.2551282,0.37355596,0.5724154,-0.030569006,-0.33476818,0.09699997,0.18322983,0.5468578,0.4488337,-0.4100417,0.3393035,0.21117555,0.3091909,-0.2474332,0.5928307,0.47443828,-0.25535333,-0.1877569,-0.2911164,-0.21582688,0.5278948,0.009712068,0.32420853],[-0.29828,0.32071477,0.11930862,0.05524925,0.46156508,0.3774856,0.42366502,0.2698194,0.37199378,-0.045090042,-0.36644086,-0.0677869,0.50423676,0.36044976,0.48538974,0.5185893,0.36791596,0.55184466,-0.32688868,-0.19836423,0.35754827,-0.37581196,-0.3781937,0.19551949,0.021493258,0.45991713,-0.3817187,0.17760937,-0.365956,-0.1589015,0.48707268,-0.06907612,0.061092526,0.15713768,0.27492553,0.43846664,0.5428239,-0.18589973,-0.16493323,0.20653519,0.12219701,0.30375132,0.19057854,-0.14292742,-0.23231152,0.3844197,0.13680436,0.5797649,0.38633257,-0.0685745,-0.000776609,0.5174601,-0.22008052,0.46701187,0.06301985,0.56781346,0.37162524,-0.18653758,-0.22046325,0.20384122,-0.038402606,0.41106054,0.5277499,0.28447905],[0.17712627,-0.6465233,-0.4471301,-0.19411519,-0.3825951,-0.3154076,-0.75755656,-0.49577987,-0.050740004,-0.38279116,-0.04860787,-0.5034193,-0.79578817,-0.6028817,-0.30248675,-0.32593408,0.06723128,-0.54543173,-0.69531167,-0.160187,-0.17356429,-0.20807603,-0.046273142,-0.40855086,-0.307353,-0.5338202,-0.30001417,0.047412977,0.04570182,-0.011812785,-0.46367195,-0.36978334,-0.010726614,-0.4462198,-0.47145408,-0.048888594,-0.7250596,-0.24364428,-0.57388157,-0.61174315,-0.23700121,-0.2449011,-0.0480413,-0.03657328,-0.21911964,-0.4265155,0.18091412,-0.06978715,-0.5295749,-0.34281442,-0.40647873,-0.60649973,-0.12141696,-0.5482397,-0.3866371,-0.66446465,-0.7794238,-0.32334942,0.10266516,-0.54560196,-0.7324345,-0.26561457,0.023570685,-0.40195563],[0.44328335,-0.44496956,-0.056369144,0.14998686,-0.16593085,-0.3110876,0.023757098,0.22472484,0.41189712,0.5289661,-0.035683025,0.2562573,0.5155008,-0.42054042,0.26986226,-0.49403158,0.019738441,-0.11806095,-0.3157313,0.2821356,-0.44313046,0.07022426,0.56088924,-0.09911602,-0.2820158,0.42114124,0.34783512,-0.4174162,-0.09077181,-0.35573077,-0.18325624,-0.23254982,-0.057436857,-0.06540319,-0.1475019,-0.33009806,-0.19267428,0.41353106,-0.4205121,-0.12022204,-0.27632517,-0.267426,0.2359159,-0.3681171,-0.46281484,0.45566183,0.0814173,-0.04282121,0.20511845,0.41526198,0.11175699,0.16025355,-0.3832621,0.09965706,-0.21101561,0.38750616,0.5172487,0.42387095,0.09943974,-0.22269252,-0.24830228,0.25989297,-0.17385784,-0.050645154],[0.34173155,-0.38879383,0.20423086,0.21887207,0.23821059,0.07277868,0.2736951,0.111978196,-0.2295392,0.30127978,0.3774687,0.013402444,0.3914888,0.1057437,0.2614832,0.34967756,0.43442225,0.43098137,-0.29533365,-0.118309416,0.6030597,0.08527223,0.44999894,-0.17858678,-0.33259937,-0.015301309,0.18313314,0.025250044,-0.06146445,0.15958712,-0.13853918,-0.095132075,0.47018033,-0.24490817,0.03940878,0.12286965,0.30520302,0.43008518,-0.2153719,0.43963426,0.3359796,0.48454237,-0.22450058,-0.28005183,-0.10840026,0.32856768,-0.21567614,0.14833713,0.39765304,-0.14996102,0.32319295,-0.14941676,0.12934649,0.40600333,0.019208394,0.5648305,-0.13666736,0.1945547,0.67886853,-0.14450158,0.30455172,0.5688767,0.11484493,0.34809893],[0.42064077,0.6354205,0.43115738,0.51807797,0.13567667,0.4793851,0.55892044,-0.04880911,-0.10683839,0.28307104,0.29204428,-0.27080768,0.24703841,-0.30974254,0.3206842,-0.25783917,0.41383567,0.1726784,0.34801286,0.00018715956,0.6719852,-0.24722911,-0.07611254,-0.17028043,0.011881931,0.09881725,0.5290861,0.33167297,0.20216404,-0.25344646,0.079448424,0.34410524,-0.24585176,0.4830351,0.56210124,-0.0969917,0.03530562,0.122777835,-0.36239126,0.23292127,0.3557812,0.28899404,0.6003612,0.5181235,0.15592775,0.10464591,0.23284537,0.4442483,-0.058120146,0.23319902,-0.022301259,0.0013108333,-0.36270377,-0.36646405,0.15115838,0.08325183,0.4384255,0.47705954,0.4866448,0.047023613,-0.13896188,-0.32282996,0.25059628,0.5382635],[-0.104078524,-0.014490252,0.5645607,0.39822835,0.49419257,0.23006819,0.050848804,0.7335152,0.5636852,0.38553262,0.6586723,0.25290707,-0.13294661,0.54199666,-0.017521221,-0.19392431,-0.32324186,0.65682673,0.57186586,0.12556082,0.5955133,0.15524499,0.1507844,0.5378911,0.47257194,0.15197028,0.5151139,0.40389165,-0.24559343,0.6101487,-0.24825507,0.37931922,0.7673818,-0.3672411,0.5829308,-0.30110207,0.17065635,0.002122034,0.16129254,0.008284024,0.2263413,0.32452154,0.49844182,0.37667665,0.014106055,-0.14257412,0.12745982,0.2526409,0.7251519,0.52296185,-0.0035265998,-0.23160431,0.016706083,0.06330868,-0.09074889,0.27410454,0.34633064,0.42317024,0.73186505,-0.044781156,-0.33145,0.13782185,-0.094230354,0.24185969],[-0.1007486,-0.14319946,-0.17224415,-0.13709444,-0.3910574,-0.5791763,-0.24685338,0.23632702,-0.38838655,0.6454183,-0.21548463,0.11287821,0.36418593,-0.27488294,-0.18678938,-0.17612708,-0.3785512,0.026492987,-0.18211472,0.653109,-0.19014572,-0.09156746,0.096694216,0.15140103,-0.53238386,-0.54716307,-0.07868514,-0.5144387,0.15868077,-0.3493434,-0.24196918,-0.049577184,0.2943703,0.2290753,-0.3691096,-0.37348387,-0.090014175,0.07235601,-0.36245483,-0.30915117,-0.0125772515,0.6003003,-0.4729744,-0.14953074,-0.37841704,-0.45541856,-0.57237375,0.38169366,0.4091929,-0.29008904,0.5705581,0.14024155,-0.15923181,0.24448125,-0.35914522,-0.354572,-0.006377192,0.21243781,0.121487916,-0.4255276,-0.07651671,-0.18369894,0.73151124,-0.10975266],[0.07564167,0.17417207,-0.2565491,0.056411363,0.49829927,-0.02642553,-0.35786796,-0.27673936,0.13692272,0.14043655,-0.42360622,0.33576614,0.13104598,0.3239839,0.58854246,0.53009623,0.4933654,0.37062722,0.46581876,-0.3266312,0.5646255,0.15786986,0.18182532,-0.30019763,0.038848173,0.61707217,-0.16489911,0.3065044,0.5805042,-0.094031945,0.09020871,-0.16241315,0.2980097,0.12569669,-0.28380647,0.38225773,-0.35014233,0.091001846,0.23130246,0.69145095,-0.5193416,-0.118445516,-0.30505726,0.464359,0.0946525,-0.2061383,-0.054834463,0.5526969,0.44163716,-0.2059619,-0.099410675,-0.300225,0.03417618,-0.040606987,0.35188252,-0.22159217,-0.0420692,0.26220274,-0.08758116,0.12186928,0.28313056,-0.12404359,0.42301306,-0.17950834],[-0.1930648,0.329909,-0.19886814,0.54345757,0.27239147,0.27295306,-0.048255518,0.41720033,0.5390689,0.34708863,0.2664692,0.08459338,-0.17339882,0.30932796,0.44327626,0.11723195,0.37332878,0.6017839,0.6445542,0.37698114,0.015208371,0.2182475,0.07212599,-0.3659022,-0.3094467,0.086566195,-0.014796141,0.5044844,0.057568554,0.13134928,-0.29187813,0.47433418,0.45458245,-0.07715203,0.43166092,0.46654117,-0.36163414,0.14516753,0.32486433,0.33569947,0.2286674,0.07298206,0.57031673,-0.097250104,-0.040825136,-0.13951315,-0.052518003,0.45318636,0.13515262,-0.29774654,0.47495392,-0.05523799,-0.32256153,0.45308244,-0.12169842,-0.033686474,-0.31013745,0.49398014,-0.103995845,0.33237308,0.1308898,0.51000965,0.08389529,0.19665623],[0.5135844,0.6357961,0.59762776,0.2856189,0.13070458,0.13833715,-0.064873174,0.41704756,0.37575015,0.29426375,0.03375491,0.35763243,0.56882834,0.33088169,-0.055879682,-0.29008353,0.43695801,-0.10142579,0.372543,0.6313764,0.023146706,0.5394136,-0.28380716,0.52753353,0.5717998,0.21048415,0.39016083,0.52113485,0.50857174,0.25631115,-0.02093857,0.14204694,0.4050193,0.5406692,-0.16237064,-0.15798077,0.38832057,0.32737404,0.036844455,-0.17954132,-0.2020297,-0.030699946,-0.25113434,0.63126713,0.3254708,0.58420885,-0.049874727,-0.23785733,-0.017969992,0.45530835,0.18306932,0.6330793,0.6493686,0.5835691,0.57060975,0.5268273,-0.30812272,0.199905,0.39676476,-0.23216324,0.05031985,0.188935,0.52502316,0.0767521],[-0.29481903,-0.3420601,0.48414984,0.6752844,-0.38074815,0.50459754,0.044388,-0.23621033,0.12556478,0.31867698,0.33784348,-0.18064396,-0.19001733,0.40999433,0.4860637,0.3232652,0.38448298,0.23529744,0.21411054,0.37658858,0.03411711,0.5665024,0.29502314,0.5404701,0.020359255,-0.31207845,0.66526157,0.33717662,-0.24246873,-0.085145764,0.10199427,-0.18006748,0.25909612,-0.21925502,-0.3357046,0.24123001,0.21884614,0.37245807,-0.18362184,0.17557582,0.15642016,-0.03639678,-0.28445476,0.0061596534,0.23146641,0.38703617,-0.27437177,-0.23172127,0.01698548,-0.31446877,-0.04881959,0.4704009,0.05782985,0.06945865,0.4432778,0.26781428,0.20100671,0.39380047,-0.20595457,-0.15241006,0.19106317,0.0593225,0.12570514,0.5423403],[0.13816318,-0.24785918,-0.19332778,0.34467617,0.4107809,-0.46824342,0.050912175,0.097266816,-0.20654395,-0.18191819,0.19487572,-0.037631582,-0.3265749,0.13168362,-0.5041949,0.48748034,0.33963007,0.30162746,-0.34650245,-0.19386843,0.41733456,-0.24488916,0.4094979,0.3394118,0.115231104,-0.48969176,-0.26238656,-0.34982094,0.0034419482,-0.44816542,0.10713659,0.35505846,0.16843708,-0.34339947,0.108711034,0.10186239,-0.076167904,-0.3713011,-0.4850845,0.12087319,-0.4364201,0.1874085,-0.120824344,0.116830714,-0.3197836,0.16673079,-0.09923968,-0.14010824,0.5849198,0.39948788,0.49640706,-0.09201704,-0.27004963,-0.23941284,0.27178544,-0.35871878,-0.024118373,0.120797284,0.24016234,-0.28616965,-0.2040607,0.35623735,-0.13399313,0.4260681],[-0.37847567,0.07775578,-0.1702055,0.2004296,0.50689995,0.078855135,-0.027209358,-0.17704052,0.5927029,-0.18450154,0.42958805,0.08588082,0.3388308,-0.1741187,0.029584924,0.63693166,0.16111863,-0.19912763,0.36847216,0.25703833,-0.12701756,0.4541518,-0.14262773,0.25168067,0.76106644,0.3373423,-0.08959231,-0.08177117,-0.101079084,-0.1998082,0.20854746,0.54601544,0.49175712,0.36337137,0.11281057,-0.20899457,0.18480492,0.22984655,0.17401,0.00288804,0.5696466,-0.04044607,-0.15690379,0.66230536,0.6136625,-0.31843472,0.76935154,0.3054803,0.5026586,-0.3098129,-0.14971493,0.04702074,-0.30681327,0.090301916,0.77874213,0.35248685,0.2616836,0.2896786,0.13449691,0.36582786,0.18411359,0.3895073,-0.3329532,0.4625234]]}}