{"data":{"bias 1":[[-0.16425967,-0.112239845,-0.1548614,-0.14056061,-0.12550092,-0.12388196,-0.1589475,-0.1540217,-0.13546455,-0.12741819,-0.13908237,-0.1286099,-0.1425569,-0.12809676,-0.12518011,-0.12607808,-0.122642994,-0.122926,-0.13227127,-0.16425714,-0.107121356,-0.15345958,-0.1436067,-0.16211076,-0.11521972,-0.11989531,-0.15057507,-0.13887271,-0.10840982,-0.13096033,-0.13724421,-0.11519441,-0.12779613,-0.13211815,-0.13583796,-0.12398482,-0.14195555,-0.13672423,-0.13036777,-0.12545255,-0.14284216,-0.119596,-0.115035154,-0.12204834,-0.13842002,-0.11424796,-0.124792926,-0.111555,-0.123504676,-0.14092192,-0.13244887,-0.1130488,-0.14267169,-0.12437044,-0.14007139,-0.12995544,-0.14137031,-0.13967349,-0.1203325,-0.12981649,-0.13209544,-0.14136127,-0.14777029,-0.16402826]],"weight_2":[[0.291879,0.5548741,0.7008902],[0.86844,0.42014456,0.95288026],[0.42263523,0.5104802,0.74319255],[0.5620817,0.93634385,0.7773989],[0.24347965,0.06689048,0.87876654],[0.5951688,0.51911914,0.3157351],[0.27784875,0.83979094,0.9431384],[0.17392708,0.61293185,0.6234932],[0.4683498,0.1381318,0.2765752],[0.5103797,0.9955067,0.6034387],[0.21774766,0.89334863,0.540194],[0.33805257,0.2565523,0.124818526],[0.19633572,0.9053,0.66871756],[0.89146847,0.3234205,0.6792533],[0.88971984,0.16578554,0.6499711],[0.20738494,0.08774625,0.52995574],[0.53170043,0.17293625,0.80966634],[0.06856834,0.94719386,0.15033671],[0.810977,0.6114358,0.50505114],[0.10837855,0.63247067,0.8519345],[0.24525775,0.098630466,0.25231484],[0.19466451,0.3598952,0.8238027],[0.23483354,0.97674525,0.8274344],[0.48878917,0.67258996,0.75043815],[0.72616935,0.009005632,0.60556763],[0.5286761,0.20402081,0.6863353],[0.6337533,0.81768495,0.8068132],[0.7665494,0.03864068,0.17881925],[0.8168047,0.6541891,0.83441156],[0.49398038,0.23605134,0.14743853],[1.0295647,0.17880972,0.49962437],[0.18348217,0.091713205,0.21527353],[0.4869682,0.6098854,0.5229018],[0.63639575,0.20390059,0.016493982],[0.7017353,0.40324083,0.5206247],[0.20308302,0.16117086,0.97145146],[0.2861067,0.9218276,0.68036383],[0.77047336,0.31057805,0.32448837],[0.74409026,0.31160071,0.21084973],[0.2578829,0.061115015,0.5394538],[0.15411696,0.7292475,0.6045334],[0.48382717,0.6624205,0.46364152],[0.9227291,0.8525615,0.301554],[0.742173,0.6118271,0.19129188],[0.7966345,0.09250585,0.28965658],[0.95466614,0.9920359,-0.0006587935],[0.80039793,0.65215206,0.74685955],[0.22474013,0.11640862,0.2394106],[0.054687135,0.47059622,0.10090994],[0.4537001,0.7384382,0.7086872],[0.051571794,0.037883695,0.009331864],[0.99601346,0.9146722,0.068053015],[0.120404884,0.88860387,0.85457003],[0.80133474,0.6031839,0.084614836],[0.17933947,-0.00006661528,-0.0030695866],[0.8870292,0.67222625,0.37446737],[0.32318035,0.89153504,0.6614173],[0.17725094,0.38505492,0.32395762],[0.76092637,0.8470062,0.110244855],[0.59258205,0.22446452,0.15122022],[0.6459113,0.37482128,0.24815887],[0.3154393,0.81847787,0.61206114],[0.0615816,0.14365312,0.4690742],[0.1647295,0.47899568,0.63902855]],"bias 2":[[0.04324964,-0.020773578,-0.018826151]],"weight_0":[[0.48000717,0.48007402,0.6311559,0.6163066,0.5416466,0.4696855,0.45914593,0.6512831,0.20235226,-0.21950506,0.7298812,0.5929205,-0.13952127,0.6273902,-0.16313618,0.343092,-0.10974711,0.37060603,0.45739242,0.13065733,-0.079756625,0.55362964,0.22584951,0.19042246,0.11323553,0.35701394,0.20448078,-0.07458952,0.60304487,0.7124091,0.2460079,0.43623313,0.28841075,0.32762277,0.48046544,-0.17541356,-0.044697564,-0.11436534,0.40767092,0.41273677,0.64196384,0.049909424,0.63384485,0.20709889,0.013760829,-0.11717757,0.054595314,0.04639097,0.1897443,-0.21541446,0.67185307,0.11650572,0.56665117,0.23756154,0.19001049,0.45866555,0.16323039,0.3355621,0.070401765,0.6701808,0.016396007,0.23166968,0.12944739,0.5982858],[0.24784364,0.6122345,0.2373103,-0.14801607,0.2321453,-0.10011,0.3398782,-0.10873475,0.06062583,0.34623563,0.39733213,0.27836815,-0.068896994,0.32203373,0.6734684,0.076356575,0.31272483,0.5735765,0.6560373,0.0050373515,-0.03204713,-0.1973907,0.1917365,0.5619152,0.17863946,-0.07641701,-0.20513496,0.033856243,0.4642129,0.7711312,0.7167853,0.30668595,0.3175135,0.56104934,0.2725831,0.76958925,-0.19424418,0.17932718,0.19514093,0.13690545,0.4565596,0.2506221,0.33972824,0.4643215,0.5408527,-0.050153196,0.75924534,0.22040431,0.4739259,-0.19366308,0.1484213,0.34987876,0.7635847,-0.08075063,0.16032207,0.6450086,-0.14562714,0.00013261058,-0.04755495,-0.13038924,0.24145137,-0.012046076,-0.039062936,-0.056159474],[0.5802607,-0.06710256,-0.11838115,-0.14580591,0.33068123,0.03454412,0.26462343,0.7556639,-0.03276981,0.3849742,0.2744441,-0.046191067,0.76576906,-0.06180208,0.5175187,0.44370311,0.48133332,0.4717497,0.765523,-0.20289809,-0.06937444,0.7248068,0.4021545,0.13306867,-0.120274946,-0.039985605,0.41854107,0.26184657,0.29971904,0.07925933,0.03626182,0.3394594,0.35975003,0.72816193,-0.042226456,0.09330086,0.21389519,-0.10742135,-0.19840927,0.70745736,-0.18803738,0.3555949,0.25237617,0.23745692,0.30249882,0.7063883,-0.20239127,0.46566683,0.26072308,-0.08308076,0.47714907,0.40416482,0.12872395,0.7433712,0.23839028,-0.015128588,0.16041596,-0.060926538,0.64267325,-0.052996036,0.26543418,0.38514683,0.6349466,0.5544222],[0.15883918,-0.09085362,0.5332335,0.122678496,0.7351903,0.07340144,0.23951112,0.19104235,0.0986832,0.6507623,0.33228615,-0.20608556,0.3203226,0.08830356,0.26052564,0.51640975,0.7472906,0.2772217,0.19963337,0.34685406,0.45863032,-0.16277488,0.41522864,0.050660666,0.19012539,0.7263559,0.32449758,0.5827715,0.7815118,0.23120919,0.7049033,0.3922113,0.015174501,-0.016461926,0.49920008,-0.21546522,0.068796925,0.71436775,0.17947789,0.68436146,-0.109483816,-0.17500712,0.58090794,-0.2072266,0.4145991,0.33418074,0.038729843,0.08835768,0.65688115,-0.0075924844,0.16560553,0.75618947,0.67021763,0.30939716,0.13738567,-0.034646947,0.31067702,0.3532233,0.75365555,0.5879865,0.37986583,-0.04867109,0.35444954,0.55056715],[0.66428167,0.6941749,0.41130885,0.0032039047,0.6186596,0.25195202,0.40788653,0.03231056,0.54127836,0.73960054,0.21604596,-0.06812019,-0.07906006,0.23792556,0.027352158,0.72309613,0.35013625,0.23675746,0.40147376,-0.14204116,-0.05083601,0.21057193,0.7559456,0.52393085,-0.08040224,-0.040812828,0.51757455,0.44253764,-0.048495613,0.66957295,-0.1835565,0.30693135,-0.14633457,-0.14423233,0.43603638,0.10577956,0.10469907,0.12645218,0.4353319,0.720715,-0.1508629,0.6684459,0.24456885,0.6629928,0.30610973,0.40959984,0.31698895,0.045454685,0.7528677,-0.18048693,0.52877676,0.2087539,0.21725096,-0.046301942,0.3882053,-0.1068202,-0.17706002,-0.1323218,0.67216283,0.53465635,0.19514011,-0.1353858,0.71542835,-0.040502533],[0.34774324,0.0319456,0.4814888,0.007346783,-0.08421379,0.30074894,0.45474634,0.11920385,0.09773296,-0.15118298,0.7982269,-0.050533984,0.10018085,0.032044634,-0.13430227,0.074613094,0.008098232,-0.05603776,0.42570916,0.15633358,0.38270178,0.09823179,0.71325207,0.0071942983,0.19613807,0.6817005,0.56658334,0.1441758,0.5320929,0.5064874,0.7141627,0.40993792,-0.093139045,-0.10731754,0.15950638,0.49498186,0.20135958,-0.13458805,0.51867276,0.50396645,0.038489282,-0.15456274,-0.10150124,0.1675486,0.7618643,-0.0033132883,0.5935436,0.6009494,0.734213,0.006316792,0.1381098,0.09247291,0.37862995,0.4371591,0.14135589,0.4929884,-0.13008408,0.39453766,0.24235989,0.25350997,0.025813216,0.7248926,0.19035806,0.16317609],[0.4670993,0.6851992,0.6939154,0.0011701174,0.10575166,0.6413519,0.6334488,0.063484244,0.07007051,0.33496165,0.62907964,0.8049825,0.47177625,0.7335488,0.7006109,0.28392607,0.025743628,0.49744707,-0.15997711,0.6356923,0.17853284,0.40384936,0.10079595,0.15028167,0.4827395,0.296807,0.793883,0.2679107,0.24291548,0.605554,0.033661865,-0.037128065,0.68282,0.35620368,0.21868894,0.6113943,0.681582,0.47722635,0.018042304,0.02704502,-0.14482248,-0.007856961,0.68693364,0.30209577,-0.046351448,-0.037550416,0.02176387,0.42448837,-0.062284134,0.12644693,0.5123476,-0.13670473,0.7010504,0.518935,0.6960252,-0.08807539,0.3175994,0.31927598,0.12740262,0.79514414,0.66758436,0.52627885,0.53597647,-0.12281658],[0.05585513,0.088128135,0.58787817,0.49123606,0.67581856,0.41311055,0.20234278,0.6102126,-0.14555705,0.27554128,-0.123094164,-0.17017972,0.33526024,0.04504473,0.4225241,0.75710547,0.07479943,0.5643454,0.3713497,0.2448692,0.36118096,-0.021243526,0.0845638,0.5207415,-0.01852179,0.69114816,0.5967828,0.07373011,0.26293632,0.73865664,-0.0049365456,0.28350326,0.4631428,0.3102256,0.23830181,0.34792113,0.31811383,0.50062287,-0.06583654,0.6586631,0.56950957,0.23798577,0.4271739,0.6143804,0.3354194,0.199618,-0.10564073,-0.17928794,0.40385476,0.7154599,0.09185775,0.4183654,0.6247579,0.7111986,0.39335537,0.14889559,0.7087023,0.725755,0.09994505,0.6854471,0.4657919,0.6843612,0.40124786,0.12640665],[-0.0436327,-0.2023811,0.49266672,0.7598476,0.5929095,-0.06342981,0.09672292,0.22737421,0.58397746,-0.010423932,0.26613942,0.31454265,0.6848087,-0.1248609,0.17237502,-0.10263212,0.31457943,0.3918085,0.52504677,0.10346343,0.3345447,-0.07362463,0.15495859,0.63048565,-0.13444573,0.21301602,0.24282439,-0.007648968,0.2989618,0.776146,-0.0035448284,-0.21142873,0.024764493,0.261016,0.16164814,0.69989604,0.58270603,0.62773556,0.7184284,-0.057596777,0.7325952,-0.06925329,0.6500161,0.54687995,0.20173821,0.06378501,0.017550923,0.52075386,0.06984938,0.44159162,0.015728269,0.6798482,-0.082986526,0.69035625,0.56769645,0.39424774,-0.16536728,0.68726575,0.100155406,-0.20290999,0.0005640113,0.21397726,-0.09772066,0.5870639],[0.74501884,0.4761563,-0.10914361,0.43552193,-0.16476598,-0.16947974,-0.1431691,0.65523565,0.41779467,0.17847505,0.15737003,0.7773527,-0.15963781,0.27820367,0.047968086,0.12135438,-0.042660497,0.012435991,-0.07330876,0.18334042,0.69308376,-0.022175606,0.21489348,0.6418148,-0.010175361,0.55370444,-0.18458562,0.56332505,0.10766078,-0.12817407,0.7733542,0.37821585,0.076618284,0.62703156,-0.10901614,0.72097456,0.20091146,0.78054726,0.4290821,0.34229058,0.41101402,0.45295656,0.057832707,0.4127055,0.087824605,0.44514355,-0.20988743,0.1647132,0.7200143,0.26923284,0.0046287174,-0.042142775,0.40755963,-0.16350293,0.04477346,0.5276141,-0.19581448,0.2624983,0.32595995,0.21903567,0.029233191,-0.08402413,0.6220332,0.029994806],[0.61457014,0.46217036,-0.15637384,0.44971433,0.33276075,0.4319858,0.11335187,0.77822703,-0.19143756,-0.07463781,0.5883454,0.43808553,0.13667819,0.7741813,-0.17328042,0.51758915,0.17586112,0.7036845,0.10523535,0.16547863,0.7286172,0.3754691,0.64966625,0.21505418,-0.015958462,0.5956211,0.6764283,0.32954878,0.08272327,0.54602975,0.51361674,0.54895073,-0.069756396,0.28134367,0.7174745,0.42401224,0.13586609,0.3018364,0.6361708,0.5595195,0.6013781,0.455151,0.61070365,0.7569886,0.18433549,0.72285193,0.4136241,0.7790213,0.13387112,-0.0069939415,0.62187934,0.46853313,0.4486973,-0.14837754,0.07718737,0.1521468,0.56490004,0.2922593,-0.07784904,-0.20785765,0.13289824,0.40030825,0.21794231,0.048262034],[0.46556988,0.12758195,0.16176453,0.47164148,0.0023214333,0.5839746,0.20704089,0.5327273,0.6730784,0.55076504,-0.09807993,-0.102201365,0.23135522,0.5090076,-0.08491331,0.0982186,-0.08363216,0.129519,0.09264911,0.3989625,0.368055,-0.1117498,0.64204127,-0.1666217,-0.10672291,-0.18864068,0.16044553,0.21313563,0.24899626,0.5314103,0.27581233,0.26733288,0.40656474,0.1509601,0.040263288,0.77589864,0.53171694,0.09061262,0.6107566,-0.022536296,0.2801508,0.6816871,0.22376415,0.3524637,0.70818543,0.3499314,-0.106999345,-0.19227216,0.3227741,0.34464562,0.5785564,0.5652826,0.18945523,0.7347156,0.19960506,0.3986305,0.6922138,0.3138436,0.48938766,0.070881285,0.15429662,0.22232641,0.49257818,-0.11010767]],"bias 0":[[-0.20102224,-0.20385836,-0.2006788,-0.19880427,-0.19942576,-0.19666992,-0.19820872,-0.20345059,-0.20064774,-0.19983141,-0.20254521,-0.20155767,-0.20339578,-0.20262468,-0.20083404,-0.1970676,-0.20287725,-0.19911912,-0.20137529,-0.20224248,-0.19929849,-0.20280029,-0.20380217,-0.19870573,-0.20074013,-0.20117907,-0.20079395,-0.20331222,-0.19618769,-0.2011602,-0.2018026,-0.20278348,-0.20178273,-0.19995803,-0.20222229,-0.1984879,-0.2032498,-0.19993937,-0.19551432,-0.19639273,-0.20041278,-0.19949538,-0.20126714,-0.2015935,-0.1999478,-0.20407899,-0.2029922,-0.20435233,-0.20254418,-0.2026128,-0.20061864,-0.20246148,-0.1985368,-0.19928327,-0.19868578,-0.20117393,-0.19940215,-0.19471183,-0.19468991,-0.20037374,-0.20539409,-0.20269668,-0.19521083,-0.1980456]],"weight_1":[[0.5428962,0.06144395,0.24547876,0.11992778,0.3315369,0.32937256,-0.15921466,0.23163234,0.59027904,0.15568587,0.52081674,0.5387846,0.16055939,0.7921704,-0.14185289,0.4118848,0.46212283,0.20802854,-0.07784135,0.028943965,-0.14293826,0.046947878,0.0943142,-0.098524325,0.6904319,0.8045061,0.42003766,0.11922022,0.08062896,0.4360241,0.36410716,0.8265893,0.59479123,0.20801684,0.117599756,0.8330305,0.16317563,0.414717,0.104835026,-0.068440475,-0.0032411462,0.80830383,0.7895952,0.10851747,0.16351236,0.541881,0.0150275035,0.75903237,0.38877687,0.7258902,-0.022266163,0.6419556,0.2725608,0.592667,0.51810616,0.08704202,0.7482648,0.005965466,0.77190673,0.14601919,0.693095,0.22939245,0.5121196,0.2504688],[0.75804776,-0.12576509,0.0173786,0.66053605,0.74876857,0.58138007,0.05758409,0.7610763,0.07667671,0.022180114,0.23649582,0.0036198255,0.80367345,0.30069992,0.2021258,-0.111269355,0.65136606,0.16623525,0.71306264,0.37150627,0.33076125,0.75235516,0.6377887,-0.07115482,0.12460933,0.674815,0.15715337,0.7429155,0.7681675,0.7398395,0.6612646,0.7812961,0.7034192,0.20695302,0.19184606,-0.12615372,0.56176716,0.52822083,0.5628667,-0.09915888,0.44161576,0.07194949,-0.13577276,0.31729615,0.7418113,0.22093557,0.55981743,0.69623923,0.16046214,0.35265815,0.011207995,0.2740346,-0.070646524,0.42791665,0.572397,0.6418029,0.09394246,0.6565106,0.44504285,0.67822284,0.28913465,0.09146319,0.23334979,0.20506464],[0.5588891,0.6655265,0.6883008,0.6683677,0.7143842,0.3907548,0.5673153,0.65536344,-0.13039564,0.7882579,0.30201334,0.806329,-0.0510024,0.6689611,0.29563296,-0.13620108,0.14373602,0.5208368,-0.121220805,0.034297753,-0.08074065,0.61195314,0.34630227,0.7931996,0.07192505,-0.1495866,0.38953623,0.33902898,0.25555083,0.79781985,0.72477055,0.1378505,-0.15445234,0.4381752,0.45924085,0.18799582,0.038280882,0.15497576,0.3017712,0.15206923,0.30091235,-0.049595863,0.30886006,0.76029104,0.32426763,0.40313533,0.2906953,0.70709616,0.20415199,0.3804811,0.39565924,0.43290395,0.7673949,-0.09355096,-0.07354791,-0.022042152,0.5828495,0.6469242,0.05742232,0.24239476,-0.120269984,0.6454009,0.29877037,0.15243147],[0.12268818,0.82924455,0.18124777,0.03932013,0.61876756,0.7792176,0.4487857,-0.03603958,0.39977822,0.5964465,-0.0013199206,0.18329073,0.15192603,0.4242384,0.8062568,0.8075707,0.28801826,0.5058176,0.14070347,0.21456926,-0.07559675,-0.0061929184,0.04776221,0.7566971,0.6848136,0.55922145,0.024502393,0.7582431,0.16822866,0.27505213,-0.08524344,0.5066987,0.736753,0.44316155,0.71748215,0.6219458,0.6870552,0.75773233,0.29427695,0.73373455,-0.008305196,0.7137042,0.42430243,0.66339606,0.0965547,0.08755553,0.4772472,0.14438874,0.25624233,0.029260444,0.6003636,-0.1376996,0.59121656,-0.077727675,0.31680682,0.65584946,0.08327532,0.62064904,0.08128215,0.20531832,-0.14204691,0.4122347,0.0033538747,0.024705756],[0.45402706,0.11657688,0.30631676,-0.088120945,0.21911235,0.7528227,0.27747005,-0.075850956,0.5961892,0.5734885,-0.14023334,0.29025254,0.54611987,0.6053492,0.47654995,0.4585648,0.14448744,0.6171526,0.6650576,-0.20419887,0.15573911,-0.039779413,0.4165816,0.050705437,0.5739745,0.5458645,0.7113294,0.047609746,0.20260088,0.47141787,0.42363048,0.24694729,0.05876761,0.4196714,0.023705887,0.31818497,-0.0379997,0.07733627,0.4260057,0.8374698,0.68950707,0.51204234,0.40181363,-0.18093388,-0.14475702,0.5629523,0.42230463,0.054105863,0.41392705,0.28676733,0.5684065,-0.11026875,0.4962297,0.172257,0.46566185,0.13202319,0.7833518,0.76180816,0.5447242,0.6538522,-0.11573452,0.4035875,0.57885057,0.6494608],[0.103436284,-0.0132612735,0.47994512,0.5983968,0.21244586,-0.044884942,0.59436905,0.7785105,0.18918155,0.13423237,0.28572544,0.077015474,0.19764799,0.32914242,0.20659728,0.60368955,0.74959373,0.7820165,0.020245887,-0.044546686,0.036100768,0.561256,0.66071355,0.73412406,0.06393139,0.54585624,0.53858286,-0.17067236,0.10935458,0.12002235,-0.13372234,-0.1356465,0.55147725,0.13660584,0.8260115,0.023797264,0.0053197388,-0.069857664,0.4594863,0.39847812,-0.15079468,-0.01201438,0.4184423,0.20320404,-0.10712543,0.5465875,0.5621939,-0.10593127,0.85853684,0.6288176,0.4308922,0.7712599,-0.09111465,0.02364771,0.5257451,0.08902021,0.44031453,0.3487353,0.80779386,0.2668479,0.5669489,0.63535756,0.57836616,-0.022554798],[0.13422325,-0.006677323,0.11474668,0.3736873,0.10855267,0.26267195,0.30943534,0.23645423,0.21535791,0.06882989,0.0099677425,-0.051192544,0.64824,0.562199,0.45775217,0.4358795,-0.06665678,0.106529914,-0.10143215,0.5010756,0.35093036,-0.013471412,-0.06552604,-0.07350338,0.19274606,0.22071078,0.22695497,0.6476648,0.3659524,0.70108384,0.12933122,0.45686817,0.28454348,0.35136452,0.8004592,0.1126056,-0.13976988,-0.09843014,-0.036144085,0.11964238,0.33836982,0.20725685,-0.11841961,0.39061895,-0.12444126,0.45379528,0.7077574,0.7714801,0.3983784,-0.101210386,0.035277903,-0.038591843,0.14224038,0.09220207,0.74883354,0.2107971,0.6530361,-0.16542833,0.50145614,0.28793335,0.7558799,-0.0027269034,0.12983908,0.5778144],[0.78975314,0.6713909,0.7951456,0.48839027,0.43107265,0.72645015,-0.042541478,-0.2005313,0.6282392,0.17090578,0.8195083,0.7755452,0.5113165,0.026081337,0.76307315,0.5513913,0.4369724,0.000008187155,0.19131508,-0.19496822,0.78083515,0.6303756,0.004459713,0.48455882,0.7367244,0.224694,0.6575028,0.09578737,0.604344,0.7261149,0.7533841,-0.04070096,0.561,0.7402712,0.7263451,-0.029435694,0.20964055,-0.06272879,0.53555,-0.13128133,0.75410086,-0.0897223,0.7400525,0.18445624,-0.15303694,0.10249623,0.6004003,0.32425076,0.19186804,0.39544538,-0.17414784,0.6681222,0.48156485,0.20211008,0.58670723,0.22086123,0.54342914,0.37655726,0.710999,0.7297762,0.07366449,0.43232214,0.531888,0.51284605],[0.5161418,0.08467368,0.03966006,-0.12326687,0.4734529,0.23537865,0.04511436,0.37142855,-0.08986393,0.23561421,0.1737441,0.09467852,0.04637582,0.82667834,-0.059848018,0.017001024,0.44373026,0.80938846,-0.15680264,0.20741382,0.46369895,0.37172684,0.06255166,-0.103539035,0.56691915,0.050965346,0.09663967,-0.13530773,-0.06324254,0.19744875,0.40953064,0.65314287,-0.06837993,0.3276121,0.14464703,0.5067032,0.22260742,0.8128337,0.22662169,0.702566,0.10969201,0.23034999,0.19567096,0.73134553,-0.06947488,-0.047824416,0.14184418,0.00558216,0.16224086,0.03342478,0.23929673,0.6202983,0.4227115,0.21505167,-0.1120864,0.5644636,0.23518746,0.034418788,0.085347995,0.3184959,0.5476247,0.6253097,0.41970256,0.7719289],[0.59834826,0.31910717,-0.12021359,-0.070187524,0.8094071,0.75433624,0.5050926,0.057204254,0.6798001,0.47021195,0.70731,0.09114126,0.12935929,0.07465967,-0.10784715,0.18505909,0.8034982,0.84844625,0.2778667,-0.020168781,0.32316455,0.66217613,0.69450784,-0.14056118,0.088279046,0.5764653,0.65394306,0.49909106,0.6445512,0.13466449,0.07917962,0.027801841,-0.13416442,0.22896703,0.31118965,0.27086535,0.5425589,-0.10319583,0.39583474,0.29817197,0.08327717,0.6115409,0.025638806,0.04952889,0.49506676,0.039016634,0.76912016,0.80352104,0.41041914,0.5024165,0.3217152,0.7484789,0.33155704,0.5397232,0.741153,0.6388077,0.20053737,0.43256778,0.085888244,-0.06275278,0.16106139,0.009703315,0.20411147,0.23642738],[0.7594538,0.045405064,-0.022294428,0.7687611,0.53685844,0.6825758,0.74307054,-0.18390146,0.78058237,0.18553458,0.5509935,0.5510115,0.13717422,-0.068897605,0.47517952,0.6035995,0.58442867,0.45067474,0.042795137,0.5146187,0.056409616,0.18453334,0.3812758,0.3706744,0.2577246,0.51076216,0.46061993,0.35576785,0.8131783,-0.064909965,0.00083255116,0.5980383,-0.039564934,-0.14359225,0.2633589,0.7927257,-0.041245464,0.54725593,0.48404467,0.01470184,-0.086226285,0.76245797,0.6628829,0.113222316,0.27725515,0.7447818,0.32521302,0.1966583,0.8432305,0.59902424,0.3400805,0.6967879,-0.11813127,0.5803809,0.52111375,0.714017,0.119257666,0.054465704,0.0379329,0.03657562,0.72866213,-0.047838032,-0.12616602,0.6347828],[-0.03867857,0.60934573,0.7366344,0.25721425,0.31929544,-0.03700601,0.57548934,0.07599682,0.10192616,-0.032951728,-0.04288138,0.6606846,0.061474677,0.80805844,-0.104698144,-0.09093634,0.7745318,-0.12307739,-0.12147082,0.30606186,0.054273892,0.49258193,0.30920875,-0.03864165,-0.05469016,0.031065958,-0.13041364,0.7466317,0.7043679,0.7306116,0.15591274,0.5623679,0.59027463,0.43642423,-0.12180812,0.069392,0.7663752,0.42130706,0.33725202,-0.018242907,0.14980024,0.6733587,0.6566982,0.14935699,0.47223067,0.53454745,-0.06955714,-0.014659847,0.6129197,0.1278917,0.05346334,0.10832412,0.3375788,0.468854,0.04470785,0.26243973,0.516671,0.10016511,-0.0054634935,-0.027947903,-0.029762473,0.30413312,0.16087958,0.25717145],[-0.13385828,0.20695005,0.47696644,0.40196866,0.70603347,0.66945654,0.3826781,0.7943312,0.6773583,0.41112703,0.22819343,0.33635628,0.3535084,0.18668926,0.81577414,0.37977275,0.63141704,0.1745408,0.15115982,0.2136682,0.5346366,0.13150933,0.26376757,0.01007405,-0.10144504,0.14113863,0.7219072,-0.13121139,0.81353414,0.6016474,0.5263815,-0.041168854,0.19013491,0.47613007,0.5280343,0.13104127,-0.05415515,0.60629517,0.43724957,0.76227224,0.10036092,0.30796006,0.2367416,0.7930468,0.4851029,0.73559594,0.52489215,0.44734943,0.43251586,0.23239185,0.24296413,0.29107755,0.26044494,-0.032450646,0.7293444,0.73533726,0.075338066,0.67634684,0.3063222,-0.0022061425,0.65047294,0.7510682,0.15125498,0.6034966],[0.2913058,0.29479185,0.020208698,0.6640664,0.22799376,0.06111107,0.13879459,0.14133784,0.37091112,0.2424852,0.1738174,0.09366433,0.21356408,-0.046868417,0.744479,0.12018529,0.82789695,0.22559404,0.28029662,0.06282893,0.4139596,0.65832984,0.32274532,0.3064814,0.38366476,0.19153458,0.7298733,0.7863052,0.07051136,0.30687797,0.30908823,0.38372698,-0.113713376,0.2535771,0.5095379,0.434528,0.7559028,0.75967294,0.53629667,0.34325337,-0.18478857,0.85770595,0.3667894,0.48141748,0.538258,0.38345385,0.44467938,0.36695644,0.36667153,-0.12113108,0.72954184,-0.0026804032,0.28148124,0.094486274,0.3574519,0.6526211,0.4847949,0.3106422,0.3575589,0.3426498,0.51926583,0.6483269,0.6154209,0.64837074],[0.13609263,0.70200676,-0.012208338,0.19316421,0.1242521,0.25075418,0.23519813,0.49754092,0.7555833,0.599879,0.11616844,0.101726264,-0.13985348,0.23573504,0.8226169,0.22702989,0.50405186,0.60276306,0.56826496,-0.19021682,0.74943405,0.30125916,-0.07340176,0.73915833,-0.02136337,0.7776913,0.7304495,0.6507828,0.5171341,0.32186928,-0.104991496,0.17596906,-0.07720533,0.6287125,0.21402343,0.743198,-0.05919056,0.15128343,0.0047027636,0.7695961,0.7054748,0.38288334,0.3863582,0.11355166,0.10415285,0.52977645,0.78909594,0.27201742,0.22480275,0.33811212,-0.11952845,0.7100715,0.68662345,0.101523966,0.03153519,0.61668634,0.13315184,0.08756479,0.5663113,-0.019498484,0.36606053,0.39390647,0.14985862,0.003266058],[-0.05703958,0.81671673,0.28887835,0.7466843,0.64874274,0.022292929,0.007193747,-0.12906206,0.79205114,-0.0439341,-0.035688225,0.16474867,0.5982739,-0.1652257,0.60966897,0.046412636,0.35685077,0.42620248,0.38631716,0.3071039,0.8361609,-0.04061805,-0.16051814,-0.08470918,0.25934038,0.51029396,0.77995634,0.24762675,0.73448443,0.40228936,0.001403634,-0.045372438,0.1002809,-0.16593051,0.38372153,0.12908173,0.15462668,0.7058304,0.7080912,-0.053303324,-0.07045088,-0.0893849,0.52150667,0.012962105,0.35055408,0.8240379,-0.13808957,0.77625626,0.44772744,0.5917811,0.50213647,-0.0752333,0.12592176,0.6208261,0.01540348,0.6335405,-0.1788782,0.07925827,0.3965867,0.04394491,0.717023,0.22965023,0.21694356,0.085392945],[-0.16393648,0.58761126,0.14306544,0.07503181,0.2842381,-0.0168247,0.54881054,0.5920007,0.42573583,0.6638094,0.5270169,0.42492023,0.68036,0.012788847,0.18134168,0.4983095,0.7463984,0.12197942,0.66585505,-0.117897086,0.44087014,-0.11973102,0.6196312,0.7702844,0.541604,0.1765104,-0.16698685,0.24799076,-0.11090283,0.3478391,0.7075444,0.38759607,0.39596617,-0.07926385,0.19363508,0.16633639,-0.090626754,0.7581828,0.26458368,0.77540845,0.7068099,0.17900105,0.31069613,0.16637866,0.37326753,0.6254984,0.3603011,0.07845506,-0.046447497,0.5988401,0.58596414,0.615747,-0.040665623,0.7435947,0.65804243,0.025852239,0.29019463,0.7481897,0.47531483,0.765494,0.056072716,0.15003067,0.78403556,0.0062832907],[0.090273246,0.2672087,0.08798941,0.54428416,-0.08612443,0.24083133,0.01286935,0.7030747,0.7633108,0.46849915,-0.032019254,0.64759725,0.63790816,0.17759639,-0.032741103,0.18175256,0.46499306,0.48187578,0.46102762,0.301368,0.49596134,0.7014601,0.44625735,-0.11154416,0.7520817,0.3253451,-0.12683639,0.14893185,0.78993726,0.49015087,-0.1666264,0.11117009,0.71551275,0.015513745,0.41307506,0.08504318,-0.08308406,0.81877506,0.7769918,-0.052941933,0.13590568,0.7399589,0.12718275,0.39165884,0.65914947,0.25312278,-0.1631092,-0.107177496,-0.07305612,0.22474325,0.23968558,0.15705512,-0.15864977,0.013814019,0.76065576,0.5246167,0.15347178,0.30402392,-0.008509621,0.3726888,-0.12415907,-0.05062383,0.3589383,0.387508],[0.44302619,-0.114258744,0.8233211,0.48495367,0.44812483,-0.14228831,0.6337156,0.035170373,0.39742142,0.6929701,0.018856708,0.3403788,-0.008484599,0.46802983,0.8062917,-0.04393625,0.14530993,0.34868383,0.43268064,0.18150291,0.4535886,0.612822,0.60453945,0.5797038,0.55496186,0.77052134,0.61904377,0.24037533,0.12658861,0.42299682,0.11820201,-0.032357622,0.4894902,0.46403185,-0.12035256,0.114652246,0.54181534,0.063165,0.6301309,0.25104204,0.23766546,0.5563837,0.033868775,0.79579777,0.49574977,0.25397703,0.7012052,0.6701658,0.6810595,0.6863935,0.31118318,0.6933736,-0.02509575,0.25800017,0.437904,0.11845415,0.5744753,0.5664423,-0.11465647,0.36086342,0.6146549,0.007070686,-0.15811124,0.22781688],[-0.08566501,0.048174966,0.50719744,0.029441394,0.78434265,0.719108,0.25432983,-0.11919456,0.27864963,0.66085744,0.333212,0.39803338,-0.13076572,0.4724107,0.600855,0.16607964,-0.109248444,0.6509789,0.5713817,0.2602904,0.08211087,0.40429583,0.12243142,-0.00034886127,0.21834543,0.17426299,0.3986827,0.13391161,0.12625213,0.07354273,0.6349454,0.7988638,0.7462998,0.611906,0.6066946,0.8476921,0.37578538,0.4336,0.4899981,0.40268385,0.021598976,0.7241507,0.8142624,0.5907242,0.5633713,-0.04703934,0.07196057,0.4640235,0.49715573,-0.10646491,0.5104645,0.35947368,0.29280883,0.42019656,0.656234,0.68009216,0.681072,-0.14622861,0.35598856,0.046095587,0.3764185,0.5864435,0.16949475,0.16898793],[0.1951783,0.6704723,0.55833274,0.250802,-0.12011225,0.05009642,0.0025445346,0.31382382,-0.1455653,0.39156225,0.3640385,0.45768327,-0.08699981,0.6337046,0.16029653,0.24802065,0.18368356,0.35043493,0.5512241,0.19709696,0.32792068,0.14978297,0.28393084,0.50157,0.052634627,0.43275255,0.4245318,-0.02191416,0.6525305,0.05480546,-0.092867725,0.54407793,0.3656806,0.5644147,0.12731971,0.7926532,0.23744261,0.04839889,-0.1055017,0.59094316,0.054405194,0.71361953,0.5837106,0.46106416,0.39367235,-0.0051303715,0.40461192,0.7701736,0.29159793,0.56795925,0.7336635,0.36472428,0.42689884,0.15178488,0.621136,-0.16404381,0.3580289,0.54210466,0.23165566,0.759061,0.38236177,0.6859177,-0.038612768,0.15912016],[0.76694,0.0044753924,0.03985424,0.2749537,-0.07700712,-0.15585668,0.22441645,0.54751277,0.40077883,0.15241468,0.6673927,0.015713964,0.2263243,0.51559216,0.360484,0.3774902,0.3145721,-0.074103415,0.8217651,-0.005170337,-0.09495089,0.14296441,0.43028438,0.39793912,-0.10695254,-0.07805691,0.08284441,-0.050766587,-0.14118494,0.40136755,0.7907885,0.2685767,0.3467023,0.75900257,0.2321266,0.3874655,0.7935021,-0.016934847,-0.036712006,-0.12540469,0.6801206,-0.049252756,0.21151714,-0.0280655,0.60242575,0.6168183,0.38577113,0.7765227,0.6216837,0.05050706,0.5404655,0.6386123,0.04688943,0.7866665,0.7574243,0.4679507,-0.06788442,0.65042806,0.67083836,0.32624963,0.8018874,-0.09141745,0.7055641,0.4769936],[0.11045266,0.8059474,0.1931361,0.5094048,0.09691322,0.06965632,0.61906433,0.47146937,0.2445173,-0.09013098,0.20635943,0.44482383,0.6733436,0.797993,0.81016344,0.25033727,0.4516982,0.5685411,0.14243044,0.046830025,0.33609053,0.41197655,0.53983974,0.26120073,0.27558428,0.42218834,0.2763762,0.24016035,0.35205495,0.66807914,0.31074598,0.077064686,0.2813767,0.59078974,-0.09282852,0.52799964,0.71116793,0.6601315,0.77595013,0.41270572,-0.09766107,0.67813957,0.6566993,0.73303574,0.18873318,0.66566443,-0.13320005,0.4246379,0.39479372,0.2682092,-0.16535082,0.21729313,0.18118027,0.4837112,0.25459796,0.14189032,-0.108194545,-0.1828577,0.5495945,0.16434729,0.7719609,0.72242063,0.5617908,0.31635818],[0.016335085,0.5029064,0.22639629,0.25607613,-0.052392412,0.48599812,0.5884165,0.57761645,0.62654215,0.8326987,0.0033017225,0.7088271,0.5683485,0.4255132,0.58214945,0.22151014,0.5204789,0.5822872,0.48760208,0.31242776,-0.05672741,-0.045609992,0.3598781,0.47854784,0.27900913,0.7269066,0.7633086,-0.04478792,0.41495603,0.6782479,0.4624962,0.1865311,-0.001610613,-0.040620867,0.74265826,0.6496106,-0.17101859,0.5558096,-0.03665214,-0.042928427,0.7780983,0.10122121,0.47552192,0.6234403,-0.006097692,-0.14170346,-0.017661333,0.30232006,0.47302353,0.16595548,0.186649,0.1382324,0.042908203,-0.16686597,0.4855857,0.24433593,0.789305,0.37449414,0.17096853,-0.0039297673,0.6560142,0.14318514,0.8480995,0.53461915],[0.31163824,0.3958058,-0.09706067,-0.07262646,0.277021,-0.12112332,0.44443685,-0.060735036,0.56596935,0.6039565,0.5619299,0.1381851,0.09652437,0.16956328,0.6956119,-0.046588417,-0.06918564,0.7812887,-0.08720381,-0.086408325,0.27456927,0.7364115,-0.09986035,0.7804493,0.8417212,0.24118237,0.7495072,0.19659525,0.5620594,0.2473139,0.20167188,0.5032992,0.53281987,0.39672625,0.15880126,0.8045093,0.007926738,0.20644307,0.26012376,0.59975004,0.2752131,0.86778855,0.7138081,-0.008874661,0.80237794,0.6641714,0.6508877,0.26304325,0.3884606,0.067526065,-0.08016961,0.15912552,0.30252716,0.24787956,-0.05666156,0.6010727,0.67113274,-0.04632097,0.3352738,0.73535514,0.15783136,0.36113542,-0.0016624876,0.4914858],[-0.1283046,0.35292506,0.4345805,0.75011975,0.17303105,0.58198065,0.35238728,0.5397026,-0.1295312,0.05999741,0.1957101,0.7560446,-0.053197447,0.6444457,0.5098646,0.3564898,0.3298665,0.75031304,0.034915496,0.25947335,0.29990858,0.2004311,-0.057557337,0.63343745,-0.007724117,0.24823126,0.51359075,0.6726316,0.134577,0.6907171,0.74611676,-0.09130081,0.5486603,0.22574939,0.6836238,0.31623295,0.52207106,0.77985144,0.5502236,0.1818,0.442422,0.41877127,-0.052895013,0.1872488,0.15691894,0.639562,0.39113876,0.28940156,0.8432183,0.7247357,0.23638426,0.31427872,0.65692693,-0.002061909,-0.1044093,0.06502122,0.4191265,-0.1318915,-0.009724147,0.55366206,-0.12576252,0.18931064,0.13477245,0.29704872],[-0.13911441,0.59299994,0.4632073,-0.022621855,-0.002293244,-0.02068469,0.07504609,0.5930113,-0.12726118,0.17700882,0.3363346,0.05861016,0.14549008,-0.13136908,0.73301464,0.25689882,0.3079313,0.53393,0.030710066,0.1944972,0.34535444,0.15303959,0.76404655,0.6649751,0.05274181,-0.07122669,0.54419917,0.6014807,-0.09078235,0.622282,0.5983868,0.06535246,0.68444794,0.14014475,0.6883701,0.2506698,-0.09052429,0.1995039,0.51252395,0.20262848,0.583169,0.56296694,0.59118253,0.5456433,-0.1396596,0.1761121,0.622411,-0.13324268,0.53008145,0.36984047,0.44601488,0.63311535,0.5772495,0.3346592,0.25177512,0.7804549,0.7342574,0.8005402,-0.15176639,0.5112587,0.07736375,0.69284356,0.64624995,0.30105388],[0.58551973,0.7469805,0.43699825,0.46400914,-0.009900818,0.5558241,0.45155996,-0.03517835,0.09818301,0.18904236,0.03883248,0.57386863,0.60484535,0.7389707,0.011171416,0.47647902,0.35719806,0.7772326,-0.017978072,0.41062835,0.44406164,0.8343382,0.4396445,0.10247445,0.46741322,0.6668701,0.5859743,0.69961876,0.21180971,0.4444333,0.6655772,0.05556449,-0.087805614,0.28849316,0.365443,0.18568145,0.50965595,0.06575707,0.33677045,0.80996305,0.039396565,0.003292458,0.56602573,0.17514616,0.77761966,0.5704878,0.6172898,0.029401427,0.31170008,0.3820681,0.76563615,0.49495924,-0.034398515,0.355099,0.50727,0.59384674,0.74915725,0.39873242,-0.018813131,-0.011271733,0.74998623,0.6841136,-0.028278384,0.08160914],[-0.1890193,0.25671908,-0.048048306,0.042023286,0.41328084,0.70880836,0.17967561,0.1911277,-0.062446576,0.55448896,0.24215217,0.5031306,-0.06842169,-0.14144303,0.3539408,0.12081375,0.6314326,-0.07199823,0.24966137,0.7487843,0.5216672,0.25639877,-0.12919544,0.10563315,0.6395059,0.8217518,0.49912363,0.30504102,-0.1505838,0.34101126,0.04091252,0.6488861,0.48141295,-0.0312855,0.46214125,-0.03318258,-0.0048844265,0.015927536,0.62034535,0.06856763,-0.1648971,0.6875245,0.38466778,0.69254655,0.16063951,0.39953107,0.03747688,0.779844,0.6246213,0.6052018,-0.07761788,0.36408633,0.02487326,-0.16468234,0.34823564,0.3618304,0.41984752,0.3986698,0.25773808,0.11258219,-0.04433931,0.13693513,-0.15598616,-0.1116508],[-0.07192498,0.31128588,0.5438218,0.11496412,0.7007079,0.48930266,-0.07850733,0.13094997,0.79064864,0.037310094,0.14996484,0.6021045,-0.04231109,-0.08681298,0.5182681,0.28011096,-0.15738234,0.10547623,0.19585152,0.57096815,0.75920224,-0.10811241,0.5542189,0.3776968,0.436355,0.29993367,0.045077465,-0.12059749,-0.025434712,0.44622266,-0.107536115,0.5370656,0.08443651,0.19391698,0.49743968,0.49334085,0.68115634,0.6301291,-0.13980618,-0.101924315,0.22699022,0.11912244,0.20618248,0.26166278,0.7439297,0.65018034,0.40126532,0.12958862,0.6031464,-0.17441912,-0.0916008,0.36083522,0.05564263,0.80696154,-0.039451644,0.10223302,0.280664,0.5260784,0.33090082,0.43612257,0.7723899,0.27649176,0.3794231,0.16074845],[0.7273639,0.761344,0.6679611,-0.1495336,0.31685698,0.6512291,0.70541114,-0.057583444,-0.036654975,0.06817408,-0.12386104,0.12138823,0.72597563,0.1599608,0.18081626,0.522211,-0.12115491,0.44113883,-0.09586284,0.42924342,-0.08054776,0.34248486,0.717982,0.25088638,0.680758,0.2733259,-0.16882242,0.6572124,0.35383737,-0.059315406,0.17466037,0.46295556,-0.076515526,0.32195726,0.4694799,0.738118,0.33240935,0.60677177,0.396192,0.017459026,0.56399804,0.46669587,0.061333496,0.6462513,0.10737285,0.6190869,-0.074364156,0.7849308,0.822082,0.6302789,-0.13744861,0.39240527,0.6401279,0.6484647,-0.09002848,-0.0059921117,0.10498814,0.25815597,-0.045137104,0.35003152,0.3402793,0.78776145,-0.1634435,0.34348485],[-0.035560496,0.8194262,0.24445805,0.54971474,0.33010226,0.3720877,0.35492018,0.36652133,-0.14095795,0.3609328,0.73477757,-0.05727143,0.62723535,0.3154623,0.25991207,0.23452334,0.53999233,0.6545965,0.6422614,0.18679902,0.4445738,0.6577528,0.7819016,-0.13601102,0.50459975,0.7122433,0.35917076,0.4298226,0.12513636,0.38850614,0.27658802,0.79672366,0.8109558,0.7282829,0.6806059,0.7589569,0.29477292,0.36983785,0.47234648,0.53974265,0.060868766,0.71880436,0.32789698,0.68128794,0.3406665,0.49746907,0.20319751,0.14254561,0.34605414,0.31326085,0.106696285,0.2384431,-0.06263522,-0.046786565,0.3511451,0.29164046,-0.0068085836,0.3848324,0.72545826,0.67076814,0.529921,0.7675089,0.38983926,-0.033216115],[0.5914943,0.45021492,0.06316944,0.35077146,0.080896005,0.80252117,0.6992933,0.30280483,0.6080489,0.046985984,0.24908951,-0.009096231,0.5915711,0.7056228,0.36270952,0.8092328,0.072651885,0.44319043,0.53005135,0.8001129,0.8049347,0.44089934,0.3531893,-0.08872134,0.61710876,0.07943542,0.48483175,0.761783,0.17525251,0.22520263,0.111046165,0.23874655,0.119496934,-0.15394968,0.433448,0.4700257,0.2215797,-0.13839261,0.21574345,0.711978,0.36984068,0.7932341,0.32694772,0.69814897,0.42560726,0.18383242,-0.050338395,0.3806204,0.021700434,0.68623716,0.043365087,0.39765698,0.3840379,0.27870283,0.60401416,0.21517152,0.022774396,-0.145874,-0.13552001,0.48524934,0.3254102,0.2227573,0.061063077,0.08649948],[0.61189425,0.42724153,0.66578287,-0.0041462146,0.1619369,0.40822262,-0.102857925,-0.053491432,0.28186932,-0.075018205,0.77731854,0.20123473,0.23938516,0.8227958,0.7978741,0.3042577,0.669753,0.13955663,0.7443005,0.62178266,0.59884906,0.3088225,0.37889665,0.47701302,0.21530795,0.65979826,0.46993276,0.6113827,0.3348584,-0.03865376,0.7605302,0.19456017,-0.138297,0.3468338,0.47725287,0.2384658,-0.08490936,0.07180691,0.69025224,0.8333717,0.49402073,-0.048968665,-0.083380364,0.01563744,0.036785256,0.46103314,0.303423,0.3831773,-0.109935954,0.47990906,0.19774508,0.0014990778,0.6258674,0.14010133,-0.024590263,-0.07634235,0.61944675,-0.14411932,0.06888851,0.73223543,0.6999218,-0.117925406,0.18334697,0.64107555],[0.6632453,0.6456919,0.66719687,0.040362574,0.13104017,0.49252993,-0.174241,0.2677733,0.2973321,0.28550166,0.12668127,-0.09229815,0.6278664,0.40598282,0.47144783,0.5961947,0.089180775,0.71032983,-0.0013349336,0.68971914,0.108740106,-0.038192697,-0.07885719,0.6422323,-0.13495727,-0.08752829,0.04385077,0.6523722,0.22266307,0.49821565,0.32325453,0.39040846,0.7738566,-0.022728674,0.2425468,0.68021905,0.24225016,0.7066318,0.3467423,0.34968928,0.19622947,0.7773773,-0.0063748187,-0.08631392,0.54384434,0.8114203,0.65973437,0.74291116,0.008002337,0.5011105,0.30849725,0.6476798,-0.06474909,0.5548616,-0.108663306,0.0075639267,-0.008681736,0.5082298,0.6921626,0.17652452,0.5606904,0.5706889,0.21002312,0.789989],[0.64300156,0.8182858,-0.04746584,0.54894984,0.27782625,0.5777091,0.116532564,-0.0036917385,0.6177564,0.18915138,0.748595,0.24656858,0.2271721,0.799571,0.22346152,0.29536694,0.64156586,0.391451,0.6194203,-0.11425929,0.77007985,-0.14005724,0.7752969,-0.018399514,0.5254107,0.23844226,0.38767356,-0.01479744,0.6319354,0.34399617,0.8042146,0.20993981,0.024387814,0.5642955,0.44599247,-0.0089111775,0.053803355,-0.06233067,-0.12581113,0.43943453,0.51045376,0.21316983,0.67852163,0.35988733,0.54560536,-0.18768029,0.5531022,0.26960605,0.50695235,0.13217036,0.62103695,0.2210906,0.75546455,-0.12281349,0.7386797,-0.01264639,0.7999231,0.36202925,0.028259763,0.16001369,0.64894795,0.25882939,-0.103980534,-0.017555675],[0.22976726,0.64291424,0.34566996,0.5567708,0.30623364,0.27690604,0.47354817,0.11852709,0.3663237,0.4427523,0.8167869,0.39569154,0.5471794,0.40030068,0.20389666,-0.014041332,0.6095704,0.55834377,0.41184947,0.64155066,0.43919757,0.5492324,0.31767312,0.49623471,0.31936148,0.09792752,-0.020271312,0.69984883,0.62701136,0.027770318,0.023853227,0.7634419,0.17220905,0.20610675,0.50602996,0.4975965,-0.056781806,0.56011254,0.47623575,0.29338008,-0.15268026,0.14229245,0.20953146,0.41972396,0.7543385,0.4340866,0.7044947,0.20265335,0.27964363,0.57222694,0.78827304,0.12091398,0.63239586,0.12593588,0.3972154,0.5581687,0.174226,0.17525385,0.3175967,0.7324956,0.24902843,0.6846691,-0.08776845,-0.069477946],[0.3556118,0.3144703,0.36715627,0.071962826,0.49726105,-0.076128475,0.61451566,0.25266585,0.09806602,0.6107323,0.33460283,0.059623938,-0.13405405,0.27844352,0.3515521,0.54972374,0.8405537,0.772658,0.43479925,0.38635406,0.4236555,0.07790804,0.7396408,0.44479182,0.68357825,0.36650014,0.6606267,0.81962824,-0.045251872,0.73424375,0.13157463,0.18370895,0.53853744,0.29970872,0.3399504,-0.10945324,-0.13384917,0.3056262,0.79065543,0.46090263,0.08447921,0.52334374,-0.09258292,0.29845718,-0.103325605,0.6023376,0.49834925,0.65325695,0.44276816,0.43791842,0.0025370978,0.30610994,-0.1755454,0.57147837,0.20145561,-0.0496269,0.6933842,0.20713973,0.055522922,-0.16735604,-0.010048175,0.39667434,0.6397406,0.013401099],[0.022033507,0.55146605,0.05445665,0.5525496,0.48586977,0.52482355,0.19707327,0.23339966,0.31713656,0.5715181,-0.0381941,0.1309583,0.78474087,0.7030557,-0.009336914,0.1287246,-0.1275815,0.7476295,0.38593087,-0.13829933,0.4730147,0.7280592,-0.1594919,0.5883527,-0.11250345,-0.04891711,0.5692141,-0.16528432,0.76216424,0.5893405,-0.06290381,0.8442437,0.49382192,0.39184165,0.7822517,0.6398812,-0.10003143,0.047034,0.6303423,0.45961097,0.11568044,0.5968217,-0.14494216,-0.16909835,-0.1767686,-0.122273944,0.08647975,0.8158551,0.5331988,0.06808398,0.34033856,-0.041085806,0.04629207,0.23912233,-0.0016065927,0.54877836,0.80133855,-0.029152429,0.12793136,0.5467484,0.5860694,0.3146871,-0.133189,0.124775305],[0.34489384,0.50427234,-0.0048692753,0.03486959,-0.09536486,0.73460966,0.12923582,0.6299995,0.04996234,0.71995324,0.16870014,0.1878444,0.5375452,-0.08909542,-0.011376498,0.30734214,0.3964452,0.6706924,0.6508123,0.3275771,0.3790344,-0.09773774,0.23390281,0.2211581,0.08190376,0.24767652,-0.084849775,0.4472443,0.38524964,0.6538152,0.5457759,0.017066997,0.5040368,-0.06875186,-0.15593818,0.27122605,0.4368331,-0.16482164,-0.03908638,0.7126197,0.10879841,0.0042553423,-0.10864322,0.49825305,0.12528607,0.58914304,0.12607318,0.025693169,0.069467336,0.10602014,0.33451223,-0.12908511,-0.012623697,0.30153722,0.024084842,0.26254445,0.62074566,0.76326174,0.3773138,0.6796941,0.3044415,0.76032025,0.5828977,0.556804],[-0.08437566,0.41490027,0.79899436,0.5307473,0.26891896,0.19188301,0.06125422,0.27312714,0.7862518,0.50334907,0.7107808,-0.08819845,0.18063778,0.3434876,0.52001923,0.67692846,0.76102984,-0.05562447,0.7177394,0.26753837,-0.12138375,0.034737162,0.30389255,0.61961645,-0.03339582,0.29962438,0.580008,0.036890134,0.6494246,0.6378598,0.20520666,0.3653178,0.62357086,0.7842238,-0.062488806,0.37886,0.31738397,0.088018686,0.016492551,0.26145303,0.5334009,0.09852518,-0.08114573,0.048856195,0.23609854,0.37237945,0.48666495,0.49237484,-0.07256798,0.73889166,-0.005448301,0.012923131,0.7425773,-0.06250441,0.64490193,-0.021519423,0.14308798,0.29020253,0.7166741,0.80256397,0.18123725,0.52231663,0.68367636,0.13681832],[-0.12235606,-0.055176683,0.7408148,0.22310737,0.15985543,-0.07067354,0.0087405415,0.60155815,0.5599982,0.75615597,-0.0668491,0.6579293,0.5386739,0.3870436,0.35856932,0.4584299,0.29752582,0.50516,0.13962309,0.5452283,0.71861416,0.31374344,0.47264868,0.43183464,0.8290377,0.1988061,-0.014969896,0.22578958,0.65959275,0.6038835,-0.080997296,-0.07099054,0.0638498,-0.07236382,0.7703954,-0.113666676,0.75952995,-0.16143669,-0.17050321,0.6765907,0.70870167,-0.092521176,0.2749441,0.46168917,0.6039222,0.38297138,0.54673874,0.83958787,0.23325965,0.5562303,0.6031915,0.33000076,-0.041868743,0.584653,-0.06340312,0.10299579,0.47697023,0.26075336,0.13254264,0.2622122,0.47654402,-0.16252671,0.28455558,-0.0055976217],[0.04612261,0.28549612,0.12162382,0.74068147,0.22661045,0.5605285,0.74567187,0.009189459,0.58486265,0.52044153,0.034619823,0.7792367,0.60971624,0.6598327,0.44553307,0.38841772,0.028427979,0.3941279,-0.15842362,0.03088022,0.32044113,0.4081001,-0.025590874,0.09979789,0.28499016,-0.1273564,0.64171416,0.3160478,0.0055182613,0.5041547,0.7096896,0.5009026,0.7849849,0.059931394,0.29376438,0.527213,0.06904618,0.0370735,0.008301618,0.6051961,0.22501597,0.79475725,0.26622412,0.6789431,-0.03105735,0.7147314,-0.023862164,0.6705719,0.039216526,0.1867189,-0.10510888,-0.006796756,0.25559434,0.16606793,0.69485784,0.73935723,0.70882916,0.6471395,0.7689746,0.1014137,0.53021777,0.338115,-0.14876118,0.7394967],[0.21307467,0.79354495,0.43490767,0.496149,0.028601423,0.22051662,0.068312384,0.7182765,0.40089828,0.08449961,0.6099295,0.093405135,-0.1115441,0.7504382,0.20060785,0.50797,-0.09831011,0.40120855,0.4671933,0.14114478,0.5553797,0.66324425,0.77475184,0.40012518,0.4592796,0.0688923,0.09877798,0.33811527,0.8195906,0.2652308,0.41462126,0.25379115,0.34231356,0.508988,0.38353178,0.5330941,0.36252806,-0.03626638,0.014204981,0.77287143,0.6357982,0.22110407,0.390236,0.47217202,0.73082846,0.6491238,0.6620991,0.27258354,0.22507708,0.4902834,0.29084903,-0.19096312,-0.027477643,0.5992784,0.1650454,0.1473732,-0.15902433,0.5445205,0.103100784,-0.06783152,0.3368684,0.7167798,0.46841705,0.22735663],[0.5926489,0.1467137,0.09562198,0.0025379988,0.35616216,0.2451479,-0.16029277,-0.036245957,0.48753172,0.50783926,-0.10867377,0.6697452,-0.11673107,0.04605884,0.5488512,0.7534625,0.070735745,0.8105312,0.39997962,0.6450421,0.61080873,0.36922234,-0.16428177,0.72389823,0.47111318,0.34651563,0.2494106,0.70345575,0.7939016,0.5815274,0.80515903,0.4852549,-0.029164333,0.6884416,0.03927307,0.51767546,0.6391055,-0.10932488,0.025097273,0.418173,0.06325015,0.22574611,0.57437706,0.2040895,-0.12371762,0.39657882,-0.09309311,0.37845626,0.63827807,0.5581853,0.815397,-0.04084461,0.45827505,-0.03811046,0.5973077,-0.15586835,0.2510506,0.051557485,0.34969682,0.02924084,0.46244305,0.58204913,0.6208329,0.039111998],[0.044867028,0.583618,0.75937104,0.16554987,0.7910809,-0.02845156,0.70378065,0.67894477,0.31241754,-0.0552981,0.4095854,0.3335865,0.2756309,0.21205851,0.7695402,0.780169,-0.0684474,-0.07446657,-0.07024278,0.614541,0.56569844,-0.08328669,0.09183168,0.7316075,0.0852883,0.35546693,0.20185928,0.54104525,-0.12042513,0.014958713,0.28113705,0.06745109,0.16375533,0.79902685,0.584719,0.80374235,0.59335345,0.36975148,0.4163615,0.7633534,0.49807245,0.03740362,-0.102205455,0.48143023,0.8172396,0.5104493,0.19705772,0.050226048,0.8142535,0.34962735,0.04192586,0.1691229,0.15834504,0.39613113,0.7494752,0.4766558,0.7924887,0.11735038,0.47273895,0.11127956,0.39082518,-0.017376954,0.6240981,0.604064],[0.27557585,0.80497557,0.45582473,-0.014720083,0.6403317,0.6470111,0.6640056,0.12534004,0.29674533,0.30067936,0.59556824,0.76584375,0.30683988,0.5419474,0.43582398,-0.0069657024,0.011777563,-0.021981172,0.47619566,0.6564085,-0.042628583,0.54424477,0.54918957,-0.0067403717,0.743019,0.7715254,0.5277698,0.16455309,0.04719929,0.49521616,0.15900317,0.048229042,0.19753546,0.74377894,0.5574899,0.37032333,0.37512675,0.5921602,-0.0033744643,0.46864563,0.18772323,0.16706045,-0.055191457,0.24872488,-0.1341239,0.008038316,0.41661912,0.293009,0.8191069,0.34776565,0.2693325,0.69733095,0.16317762,0.44949812,0.09487551,0.6741829,0.051360942,0.6800526,0.04954136,0.587112,0.5227232,0.11913707,0.543127,0.68298644],[0.1942237,0.5945033,0.34042776,0.22992091,0.7983181,0.054583386,0.7379462,0.75461787,0.3972348,0.6052849,0.21861193,0.08865817,0.21108851,0.4099856,0.7604422,0.49412596,0.034637652,0.4506206,-0.07052261,0.53191996,0.7429376,0.7581943,0.32402977,0.15335163,0.19947994,-0.095816486,-0.009763277,-0.17042887,0.49415296,0.42040744,0.8067942,0.2736871,0.008912752,-0.15590423,0.07780111,0.803981,0.7224284,0.5701799,0.3085812,0.30541238,0.35135496,0.19567016,0.022434577,-0.010125932,0.6989897,0.6653306,0.7227146,-0.05272422,-0.011375697,-0.02583151,0.0536756,0.6409597,0.67207825,0.45543957,0.4989772,0.73305255,0.751031,0.37274024,0.7257779,0.39626878,0.6926703,0.6521951,0.4194629,0.60681736],[0.30008057,0.38953212,0.7218597,0.093424216,0.39979705,0.4827684,-0.13198027,-0.030638736,0.5051052,0.75386673,0.66078776,0.58382076,-0.101592004,0.1992368,0.06742325,0.06319747,0.2844257,0.10262064,0.052058015,0.5953009,0.007595647,0.58775944,0.51739645,0.7027494,-0.17213523,0.36389688,0.100796305,-0.1112988,0.2912089,0.18195584,-0.013045457,0.49576613,-0.025550121,0.72210884,0.75611335,0.84098166,0.18517292,0.3087021,0.79917425,-0.12041903,0.622251,0.12250235,0.72751844,0.74802035,0.2570002,0.4820559,0.41215795,0.21385233,0.6295958,0.15447786,0.47838572,0.4702784,0.11229827,0.10697093,0.04951503,-0.14000574,0.2546926,-0.14139405,0.40947112,0.7783758,0.39834976,0.29861307,0.13479985,0.16959041],[0.8854,0.61421543,0.59592605,0.8447839,0.19355614,0.12986702,0.28174666,0.2132471,0.36770877,0.7153542,0.5447737,0.4126478,0.30575874,0.18458042,-0.08470292,0.84881884,0.7292662,0.653546,0.7716899,0.26125187,-0.029425558,0.530307,0.090987876,0.80424035,0.1707654,0.75322556,0.48476714,0.14059162,-0.14256911,0.53782034,0.27441826,0.32336563,0.47890317,0.27531037,0.29311407,0.5188821,0.47183698,0.6475953,-0.010152817,0.49675643,0.3379423,0.16963959,-0.06314955,0.26358688,0.6115378,0.69030774,0.6685266,0.19410892,-0.07791873,0.86670524,-0.17466952,-0.10208915,0.46465817,0.64456385,0.31583428,0.7841229,0.64081293,0.5847471,0.0707547,-0.007110453,-0.11130188,0.3755003,0.50428635,0.26950634],[0.044788938,-0.048348695,0.33760318,0.5851488,0.5524378,0.75234926,0.57709754,0.4732228,0.077840544,0.18558232,0.44836468,0.4158964,-0.022197934,0.5502414,-0.013806042,0.6131719,0.07181765,0.020756477,-0.06734482,-0.122819245,0.47210905,0.59085804,0.446936,0.42193893,0.3497829,0.5695234,0.377252,0.36694658,0.6923106,-0.15097742,0.0021609336,0.163572,0.12330995,-0.004826881,0.32728332,0.66213006,-0.13447763,0.4697708,0.29132608,0.68200386,-0.038602836,0.5273757,0.59356624,0.7950448,0.1901725,-0.14613894,0.31494963,0.40648374,0.8110664,0.70793,-0.14762743,0.56290525,0.48308954,0.5307186,-0.028093835,0.8115942,0.74144506,0.009195191,0.042568106,-0.069228016,0.005878085,0.7929069,0.2652982,0.58019686],[-0.07024622,0.54978234,0.35002807,0.29162294,0.71036124,0.62175405,0.65605074,0.50610435,0.6050208,0.1925128,-0.12854354,0.17222774,0.73887575,0.58905345,0.7168758,0.76375175,0.60513705,0.7920396,-0.0940544,0.03231779,0.5860796,-0.15015547,-0.14346495,0.42931768,0.25177407,0.694498,-0.14643763,0.41243103,-0.13784154,0.07701878,0.7198036,0.16290794,0.2981403,0.39120167,0.50399417,0.695542,0.778689,0.04817728,0.073033795,0.45362008,0.35898983,0.5502808,0.43288562,0.09994031,0.00078239164,0.57440627,0.36383048,0.81313217,0.6236154,0.1627381,0.21475092,0.7633949,0.01785858,0.70694506,0.29543543,0.80110604,0.60765654,0.04654413,-0.009552571,0.44078296,0.19965206,0.6464284,0.7528725,0.5132621],[0.766061,-0.08957662,0.14998408,0.40775308,0.23193668,0.2920634,-0.16316359,0.10599265,0.549543,0.21565828,0.5557168,0.09815259,-0.19831626,-0.027568787,0.2829606,0.27806932,0.657979,0.056068595,-0.121267915,0.42569456,0.43831915,0.37828463,0.55376136,0.19112809,0.276681,0.06156071,0.30238777,0.63208723,0.55826217,0.5833549,0.11840709,0.23007463,0.5931836,0.12238418,0.0942509,0.5799183,-0.1262776,0.340247,0.013714437,-0.020739324,0.36731553,0.35697824,0.5541762,0.56565815,0.3689636,0.10173219,0.7846698,0.5233448,0.06755099,0.24850279,0.17683956,-0.013379055,0.48285636,0.046820156,0.18730831,-0.08979154,-0.178569,0.27618572,0.603141,0.04633876,-0.13667855,0.33284378,0.6125246,0.1858204],[0.6437623,-0.0845757,0.14339583,0.3561482,0.23324566,0.069311135,0.22669423,0.42953238,0.77808255,0.7373484,0.17142203,0.6310703,0.7204284,-0.06313952,0.636598,-0.10719168,0.39038652,0.09236651,0.03769354,0.48428386,-0.08344682,0.26784194,0.765896,0.10395425,0.08479867,0.7978416,0.552044,-0.049806744,0.26988077,0.011840418,0.18045609,0.14225489,0.14917673,0.29198822,0.20482971,0.070747696,0.013153968,0.77857745,-0.048939843,0.24516395,-0.071204886,-0.050400782,0.6121282,0.00921487,-0.09806525,0.7792704,0.43289042,0.3329875,0.41386536,0.6182577,0.28767192,0.5396844,-0.17747574,0.470489,0.14546318,0.7420851,0.7232096,0.62757325,0.2862552,0.14745174,0.12349863,0.4658275,0.022644687,0.15009362],[0.48045397,-0.15868966,0.34101856,0.3617719,0.4917233,0.3036778,0.41397262,0.25322917,-0.000070020295,0.44687882,0.5211106,0.24135365,0.53355515,0.33353472,0.49161196,0.5963951,0.6677321,0.57848406,-0.06952815,0.021433312,0.8318636,0.22138047,0.5919568,-0.038723126,-0.10176275,0.21894531,0.32402232,0.25497425,0.1667648,0.38773444,0.09075025,0.13523279,0.613689,-0.017680403,0.26577538,0.36963075,0.44785905,0.65846264,0.015135895,0.67537165,0.47759625,0.6415466,0.0017389986,-0.050373394,0.120511204,0.5180639,0.010620832,0.38103592,0.5440525,-0.009254172,0.44059846,0.08038974,0.2710745,0.63403755,0.24613145,0.78942394,0.0061003617,0.33571795,0.8109557,0.08539254,0.53411865,0.7117705,0.24989468,0.48693135],[0.60482234,0.821321,0.6134845,0.7070243,0.3404259,0.67977756,0.7449379,0.13839655,0.08637109,0.4749617,0.48181137,-0.072481684,0.43495542,-0.11977102,0.511449,-0.05400315,0.60677266,0.36688825,0.54494137,0.18564086,0.8568882,-0.06590151,0.11179202,0.015417939,0.19995002,0.28640583,0.7158334,0.5269191,0.38686335,-0.056593522,0.27319023,0.52889556,-0.05623249,0.6801329,0.7539762,0.107662484,0.22395316,0.31829503,-0.16483371,0.439476,0.5432607,0.49456757,0.7998884,0.71887064,0.35012582,0.27555025,0.4215042,0.6302235,0.13471349,0.4195799,0.14166747,0.20362203,-0.17492408,-0.16613638,0.34614465,0.28161624,0.6271962,0.66391337,0.66179854,0.2441729,0.05882975,-0.13390729,0.43067083,0.7225713],[-0.042767406,0.19705863,0.62412876,0.46195444,0.72199154,0.44597924,0.112939335,0.79599255,0.7757067,0.45227107,0.72306144,0.46629387,-0.069600984,0.75237334,0.19436494,0.031033631,-0.10844444,0.72563577,0.7835405,0.18727697,0.80576533,0.21486738,0.21384771,0.599428,0.6844297,0.36612767,0.5773761,0.6167666,-0.03572088,0.8228764,-0.036047135,0.5899736,0.83197534,-0.15480244,0.7929585,-0.08563816,0.23425889,0.2144196,0.37547508,0.2263058,0.28928557,0.40959916,0.7120973,0.5923275,0.22621328,-0.042970303,0.3365058,0.4652943,0.7932118,0.5854273,0.05433494,-0.01449314,0.07941229,0.2779989,0.12053153,0.4860704,0.41001415,0.48596877,0.8009485,0.16892433,-0.11757244,0.20156586,-0.035139825,0.30325025],[0.017674312,0.26858506,-0.056212645,-0.014873217,0.04824538,-0.15654887,-0.12715049,0.35680738,0.025825446,0.7716247,-0.09239222,0.53161526,0.48563778,0.13429055,0.22712435,0.25451156,0.038624156,0.15576875,0.22604556,0.77230656,0.21584043,0.024363576,0.21793118,0.27051127,-0.11800996,-0.12667492,0.041423332,-0.099620745,0.5685048,0.06558648,0.17082848,0.36828953,0.4178066,0.6395068,0.037950136,0.060318414,0.03194888,0.48546115,0.0549191,0.10652132,0.10834482,0.74870485,-0.053060092,0.27130654,0.034722123,-0.11794964,-0.16487402,0.80136764,0.53726935,-0.16991758,0.67432356,0.5630427,-0.038403068,0.6619598,0.05091783,0.053215742,0.11569418,0.33310223,0.24050207,-0.0091404095,0.34079215,-0.06147147,0.84648687,0.008767561],[0.38732776,0.3042081,0.075342245,0.38897243,0.6466104,0.100312606,-0.03637478,0.057196077,0.26531598,0.46516693,-0.0880831,0.46174204,0.45685983,0.45214027,0.717455,0.6800609,0.62860453,0.69913495,0.59318,-0.014037656,0.6935138,0.47042185,0.5084029,0.032969143,0.16834496,0.7484095,0.17293257,0.43486726,0.7089612,0.03325152,0.21871895,-0.034135137,0.638931,0.25338492,-0.15642825,0.52048254,-0.02315137,0.21880127,0.3594884,0.8379796,-0.181337,0.21044272,-0.17992711,0.5911084,0.22286306,-0.020217411,0.07239568,0.6823625,0.7606073,0.109934136,0.24077825,-0.17415078,0.37202713,0.0862002,0.47939393,-0.09467488,0.28809515,0.59441334,0.18027246,0.24995735,0.4105933,0.20172,0.74381924,0.13156457],[0.02421416,0.5027296,0.020020055,0.7680382,0.4681471,0.44169873,0.17274436,0.64137906,0.71154135,0.57261723,0.4923283,0.2517934,0.049739193,0.48141944,0.61632305,0.30819544,0.5491417,0.82906365,0.8149877,0.5965962,0.18615639,0.43301466,0.29533988,-0.14399046,-0.13597643,0.26112124,0.20847252,0.6771057,0.22798228,0.30204257,-0.11905001,0.6442206,0.67930746,0.09431493,0.6027452,0.6492299,-0.13741335,0.31693548,0.4973018,0.51653767,0.45335537,0.29807872,0.73029685,0.07144556,0.13158257,-0.02739263,0.11807298,0.6254927,0.3600923,-0.077457,0.6656728,0.1076593,-0.096872784,0.6219876,0.049296707,0.13560829,-0.085779905,0.71559805,0.057754252,0.50466937,0.302109,0.7338757,0.29793802,0.4145467],[0.64786553,0.8135568,0.7297514,0.42407155,0.32960552,0.30911836,0.070929036,0.5538479,0.55236864,0.43470058,0.1728264,0.5278646,0.7064653,0.50737053,0.12161102,-0.09368616,0.6183181,0.040244803,0.5461631,0.76664263,0.1992207,0.6709988,-0.14625897,0.662916,0.7499175,0.39001125,0.52659094,0.6975952,0.68414724,0.4304802,0.1559323,0.31726703,0.5437349,0.71531796,0.012889497,0.026186822,0.52655005,0.50285417,0.21270034,0.0077464934,-0.064868085,0.11173212,-0.08923547,0.8015136,0.5018221,0.68865174,0.12529989,-0.06038217,0.12280582,0.5915871,0.2864086,0.7967187,0.786604,0.754328,0.7453079,0.69865745,-0.16981177,0.33669394,0.50329465,-0.056411397,0.22490023,0.32740366,0.6555481,0.21112937],[-0.16713366,-0.10766627,0.60995966,0.8065557,-0.12661465,0.7399979,0.17346168,-0.106401764,0.35959738,0.4526278,0.46987167,0.05165279,-0.05933316,0.6421129,0.7207922,0.56982726,0.6214298,0.3710569,0.4436646,0.5051644,0.26736155,0.6918646,0.4255146,0.6689695,0.2558331,-0.073005505,0.7947051,0.5713991,-0.009820246,0.14730035,0.3357017,0.055326976,0.39084378,0.01194359,-0.10516052,0.49443942,0.34996882,0.6051592,0.051427647,0.41326645,0.2866873,0.10994395,-0.054704167,0.23994607,0.4647919,0.57809114,-0.04374677,0.005975699,0.1517373,-0.18504186,0.062950715,0.7036487,0.18810719,0.30127665,0.67436117,0.49574393,0.33223826,0.5235697,-0.079584464,0.08195127,0.4250811,0.19060965,0.2500657,0.6701566],[0.38094684,0.09087052,0.056499273,0.5988153,0.7922103,-0.10427686,0.30001155,0.35255697,0.13901748,0.07181903,0.45117748,0.3194867,-0.07479632,0.46705303,-0.15806325,0.8524608,0.6890621,0.5583947,-0.015576949,0.052180555,0.75653785,-0.0033988892,0.6611967,0.5918449,0.46131983,-0.13186297,-0.007803735,-0.002409055,0.34310347,-0.10063711,0.44971183,0.7112989,0.4244965,-0.0077156625,0.43876776,0.4895323,0.17688164,-0.026807345,-0.13278538,0.46168455,-0.18007997,0.4499956,0.23864263,0.47700948,0.024121901,0.44414175,0.22978896,0.21688832,0.8372799,0.64620507,0.74001205,0.2707773,-0.012580289,0.11240111,0.60624784,-0.026223456,0.22937056,0.3715166,0.4632775,0.06438714,0.14873129,0.6081629,0.10826116,0.66995597],[-0.16927764,0.12040738,0.039036963,0.41595203,0.5771519,0.13824345,0.18487667,0.037419293,0.64921933,0.032532766,0.6461113,0.14479646,0.5529866,-0.11890863,0.08510662,0.7047499,0.23085444,0.01956285,0.4268739,0.46815476,-0.08452432,0.66051877,0.07165722,0.46422893,0.8151871,0.41430885,0.124163195,-0.024508134,-0.05855101,-0.14168109,0.2652066,0.620193,0.70751566,0.42163485,0.16889727,-0.13218018,0.39997208,0.2873067,0.23215784,0.065815225,0.78445196,0.17860399,-0.09714437,0.72182167,0.6705335,-0.14950886,0.82402605,0.34793434,0.7195195,-0.09789237,0.035923954,0.10698238,-0.09117299,0.14973398,0.8361969,0.41150206,0.4769779,0.50253236,0.31566727,0.42384872,0.24241993,0.6046476,-0.12757333,0.6720839]]}}